<?xml version="1.0"?>
<opencv_storage>
<my_svm type_id="opencv-ml-svm">
  <svm_type>C_SVC</svm_type>
  <kernel><type>LINEAR</type></kernel>
  <C>1.0000000000000000e-002</C>
  <term_criteria><epsilon>1.1920928955078125e-007</epsilon>
    <iterations>1000</iterations></term_criteria>
  <var_all>3780</var_all>
  <var_count>3780</var_count>
  <class_count>3</class_count>
  <class_labels type_id="opencv-matrix">
    <rows>1</rows>
    <cols>3</cols>
    <dt>i</dt>
    <data>
      -1 0 1</data></class_labels>
  <sv_total>3</sv_total>
  <support_vectors>
    <_>
      2.57309014e-003 9.52560164e-004 2.32850388e-003 3.91822401e-003
      6.83031091e-003 2.08153808e-003 2.13727402e-003 2.51917215e-003
      4.94741136e-003 3.07503995e-003 1.38431811e-003 2.49209371e-003
      5.85906580e-003 6.24078838e-003 1.41322380e-003 1.46026816e-003
      2.87082139e-003 4.92493855e-003 4.43824288e-003 1.28316798e-003
      1.97020173e-003 3.10406787e-003 5.73366787e-003 2.64204363e-003
      2.44499114e-003 2.08949903e-003 4.46057459e-003 4.40042419e-003
      2.11193436e-003 2.13318877e-003 5.99223701e-003 6.22465648e-003
      2.69511971e-003 2.53112311e-003 3.82073643e-003 4.63327253e-003
      3.17919161e-003 1.18343544e-003 1.33525755e-003 3.34812840e-003
      6.36508409e-003 5.93176170e-004 6.95035502e-004 2.40344531e-003
      4.11829771e-003 4.07268619e-003 1.80269871e-003 2.46739620e-003
      3.88407381e-003 6.05878327e-003 1.45941554e-003 1.00276014e-003
      2.22467002e-003 4.09794366e-003 3.16902832e-003 1.60780060e-003
      1.58749009e-003 4.51395242e-003 7.60979718e-003 1.58891384e-003
      2.03855732e-003 3.38031584e-003 3.75118363e-003 3.54478927e-003
      2.18988862e-003 2.04206794e-003 4.70943516e-003 7.60524394e-003
      2.36359215e-003 2.91069155e-003 3.74329207e-003 3.98885272e-003
      3.21585825e-003 1.38973247e-003 2.72325100e-003 3.67344799e-003
      5.12020569e-003 2.21894844e-003 6.46418892e-004 1.70915993e-003
      4.06522956e-003 5.39952982e-003 1.66833587e-003 2.52840575e-003
      2.82399682e-003 4.65540541e-003 4.19371948e-003 2.09416845e-003
      1.74198765e-003 5.14543569e-003 4.55004023e-003 1.82693673e-003
      2.56772968e-003 5.17995981e-003 5.25149936e-003 1.83552527e-003
      1.36877561e-003 3.36158741e-003 4.67334734e-003 6.00321451e-003
      2.04320694e-003 3.58752976e-003 4.86296276e-003 4.59922617e-003
      4.24580276e-003 3.19822016e-003 2.48303870e-003 5.10922121e-003
      4.89126472e-003 2.38547986e-003 2.14897678e-003 1.87253719e-003
      3.33846454e-003 4.26341407e-003 1.86188892e-003 1.54135225e-003
      4.74099675e-003 7.04002613e-003 2.45163217e-003 2.83549703e-003
      4.65635024e-003 1.37571841e-002 2.77996133e-003 1.29624759e-003
      1.43978687e-003 7.04988604e-003 5.21168718e-003 2.67172558e-003
      2.76931981e-003 2.17877515e-003 4.58131218e-003 4.42532869e-003
      2.42733117e-003 1.79687911e-003 4.74420143e-003 4.72808629e-003
      2.06416030e-003 1.95112790e-003 3.64382192e-003 4.24988801e-003
      3.34002636e-003 9.78082418e-004 2.22500763e-003 4.71671578e-003
      6.12426223e-003 1.79275963e-003 1.58343511e-003 2.02287803e-003
      8.84277187e-003 1.73631171e-003 1.28621887e-003 1.57113490e-003
      6.36126287e-003 1.00741666e-002 1.35309587e-003 7.93042302e-004
      9.33316944e-004 1.66608840e-002 2.27823923e-003 2.38718139e-003
      2.98608653e-003 9.87103861e-003 5.20359306e-003 1.73315150e-003
      1.10383867e-003 1.58039317e-003 5.85262151e-003 2.17822473e-003
      8.83086759e-004 2.05323333e-003 5.16549358e-003 5.36588207e-003
      1.25121535e-003 8.16965592e-004 1.06270064e-003 5.99559629e-003
      2.98041920e-003 1.02779642e-003 2.56466353e-003 5.42095769e-003
      9.98066552e-003 2.40748748e-003 2.28259573e-003 1.60035980e-003
      1.53291393e-002 3.92140402e-003 2.12166738e-003 2.18905741e-003
      9.69881751e-003 7.77558098e-003 3.71705391e-003 4.34520794e-003
      1.33554416e-003 1.07072983e-002 2.07604840e-003 1.59878994e-003
      1.82050909e-003 7.55453901e-003 4.77489876e-003 1.06140587e-003
      9.17453086e-004 1.78007537e-003 7.13108992e-003 5.23127988e-003
      1.77658442e-003 2.78992718e-003 5.07270684e-003 4.96890303e-003
      2.01380067e-003 1.58868916e-003 1.35941792e-003 3.26128257e-003
      1.95236446e-003 2.38536415e-003 4.28546639e-003 5.06684789e-003
      8.03343672e-003 5.40350284e-003 9.10180248e-003 2.49692611e-003
      1.76976249e-002 2.43045040e-003 3.07755312e-003 2.74463254e-003
      8.24520271e-003 5.02732396e-003 2.78542005e-003 4.17748326e-003
      1.78139016e-003 5.27644809e-003 2.03941087e-003 2.59382254e-003
      2.63429899e-003 5.53994486e-003 5.95781812e-003 3.67650064e-003
      4.22162842e-003 2.53741024e-003 4.21059644e-003 1.85986201e-003
      2.95937667e-003 4.51221457e-003 6.04578247e-003 5.36271045e-003
      2.69136205e-003 3.43333930e-003 1.25960482e-003 4.18250123e-003
      1.72452605e-003 2.59250682e-003 3.02148308e-003 5.75569598e-003
      4.91253147e-003 3.03853583e-003 5.67845814e-003 1.56498735e-003
      9.45005380e-003 2.23208591e-003 2.01821211e-003 2.28195917e-003
      5.54444268e-003 9.35171917e-003 3.48234642e-003 2.95326137e-003
      2.61818222e-003 3.57798412e-002 3.48178251e-003 2.44216667e-003
      2.61161732e-003 8.82597920e-003 4.84002940e-003 2.26270594e-003
      2.82146619e-003 9.50268179e-004 7.32400734e-003 1.97622017e-003
      3.46714235e-003 2.61265994e-003 5.04964963e-003 7.75618199e-003
      3.56414216e-003 3.41298943e-003 5.48134977e-003 1.97670106e-002
      3.23117548e-003 5.08789858e-003 2.67584110e-003 8.03457480e-003
      7.05336314e-003 2.22085044e-003 2.02272693e-003 1.31512608e-003
      1.99598875e-002 1.78985321e-003 1.96811231e-003 2.70544109e-003
      8.83383583e-003 1.15514686e-002 3.65738128e-003 4.49190848e-003
      2.93046725e-003 2.23973375e-002 3.57291079e-003 4.51618759e-003
      3.88324377e-003 1.29053397e-002 6.88190432e-003 2.89970380e-003
      2.91449367e-003 2.29339395e-003 1.30594987e-002 1.70303276e-003
      2.06320523e-003 2.79495516e-003 7.51569914e-003 7.56205758e-003
      3.52038443e-003 2.99074710e-003 3.63270543e-003 1.66174807e-002
      2.85567716e-003 2.46557267e-003 4.31946339e-003 7.59129738e-003
      6.26126211e-003 2.82108574e-003 3.25141242e-003 2.48453859e-003
      2.30033435e-002 3.15686734e-003 3.06260097e-003 2.88193068e-003
      8.03073961e-003 6.98961550e-003 2.99328147e-003 2.61135306e-003
      1.18185056e-003 9.31380596e-003 2.76914937e-003 3.62861389e-003
      4.01596865e-003 8.30001011e-003 7.31785269e-003 3.12629319e-003
      2.71768169e-003 3.25107644e-003 2.56468933e-002 3.53071466e-003
      3.55140213e-003 4.09879908e-003 7.44180754e-003 7.96265528e-003
      3.65586509e-003 4.41349391e-003 2.58670654e-003 9.39325709e-003
      4.55291476e-003 5.29528596e-003 6.63933065e-003 8.06641486e-003
      6.97056763e-003 2.89637758e-003 1.78786076e-003 1.31212990e-003
      7.46129453e-003 1.95050612e-003 2.67420406e-003 3.75415594e-003
      7.54316337e-003 8.58517177e-003 5.43668913e-003 3.86134069e-003
      3.78662883e-003 8.77453573e-003 3.88092268e-003 3.94093292e-003
      4.43532690e-003 8.16153269e-003 7.25039467e-003 3.54610267e-003
      3.05031403e-003 2.22591893e-003 8.84892140e-003 3.22119449e-003
      3.36939679e-003 4.58443118e-003 7.22995028e-003 8.99976585e-003
      6.39394345e-003 3.42232850e-003 7.03637581e-003 8.29678215e-003
      5.96540328e-003 4.65258351e-003 5.46536036e-003 7.92062841e-003
      8.59973114e-003 5.60799753e-003 4.50111320e-003 2.99524935e-003
      6.67278282e-003 4.66741016e-003 3.41767701e-003 3.58020328e-003
      8.19199160e-003 8.57609231e-003 4.66613937e-003 3.95000074e-003
      2.92534870e-003 8.55695084e-003 5.61759807e-003 4.48861159e-003
      4.77367034e-003 8.99908319e-003 9.37455334e-003 5.62205259e-003
      3.33663821e-003 5.64324204e-003 6.44435314e-003 5.85219311e-003
      4.63468116e-003 4.69590537e-003 8.02097376e-003 8.28939956e-003
      4.57686465e-003 3.33189941e-003 2.58472562e-003 7.28872325e-003
      5.31471474e-003 6.70896703e-003 4.86772694e-003 8.46458320e-003
      7.38093397e-003 5.51039446e-003 3.31153348e-003 3.67861730e-003
      7.93810561e-003 4.67170263e-003 4.91276523e-003 5.98622765e-003
      8.21275637e-003 7.81679992e-003 6.88172318e-003 4.36278433e-003
      4.70141321e-003 7.79228238e-003 3.95916263e-003 6.63926778e-003
      7.44021870e-003 7.94470124e-003 7.45653640e-003 4.65203729e-003
      2.71892012e-003 2.71381903e-003 6.91870227e-003 5.02553862e-003
      5.95238572e-003 5.91116352e-003 7.59874238e-003 7.48475315e-003
      5.74498251e-003 3.38837644e-003 2.50455528e-003 7.81206600e-003
      4.90215654e-003 7.68411998e-003 8.80547706e-003 7.55583541e-003
      6.55584922e-003 5.06599899e-003 3.99360480e-003 4.82431753e-003
      7.63997296e-003 3.81148933e-003 6.00396655e-003 6.64305221e-003
      7.36061996e-003 9.08327661e-003 4.61718207e-003 4.36347770e-003
      3.71493096e-003 1.27615435e-002 4.00767568e-003 7.34112831e-003
      7.18852226e-003 9.37711913e-003 7.08506536e-003 5.55461925e-003
      4.14851867e-003 2.91428086e-003 8.77709500e-003 4.75256704e-003
      7.36865494e-003 8.03278387e-003 7.39953527e-003 7.66423531e-003
      6.68200757e-003 8.31765868e-003 4.67506330e-003 1.27795991e-002
      5.92939276e-003 9.01712477e-003 9.52142105e-003 8.49692244e-003
      8.05830956e-003 3.60283093e-003 3.17649241e-003 2.21774774e-003
      9.07979999e-003 3.21875722e-003 5.84613765e-003 5.85463457e-003
      7.39191892e-003 1.08307060e-002 5.10890083e-003 5.27504366e-003
      5.64420875e-003 8.45610071e-003 4.86059906e-003 6.86709583e-003
      7.27351103e-003 1.04142083e-002 8.48153885e-003 6.00956427e-003
      6.00167224e-003 3.76192760e-003 9.03909188e-003 3.47505393e-003
      7.28218630e-003 8.85999203e-003 8.75404105e-003 9.51552670e-003
      6.28090510e-003 5.75035345e-003 6.25854544e-003 7.64381094e-003
      3.27917538e-003 8.33280198e-003 9.79273114e-003 9.99656040e-003
      5.28015755e-003 1.38778868e-003 1.97056704e-003 2.42424244e-003
      4.09337599e-003 2.18424620e-003 2.08396441e-003 1.47025718e-003
      5.00482554e-003 5.17843384e-003 2.21477356e-003 1.93702418e-003
      6.39549689e-003 8.56506638e-003 3.70036275e-003 3.28443921e-003
      3.10329697e-003 5.03783254e-003 2.48492765e-003 1.26480870e-003
      2.51894351e-003 3.08961165e-003 4.02330700e-003 2.15835474e-003
      2.35765148e-003 1.36208383e-003 2.42591719e-003 2.21077423e-003
      1.35071634e-003 2.20032991e-003 6.35711337e-003 7.52898026e-003
      3.44493007e-003 2.58664275e-003 1.47075707e-003 2.51126592e-003
      2.31259060e-003 1.50360586e-003 1.58039224e-003 4.56943316e-003
      7.98057020e-003 2.82777613e-003 2.67438451e-003 2.00955011e-003
      3.18718026e-003 2.63599702e-003 2.03481619e-003 2.10254313e-003
      5.37667051e-003 7.98526127e-003 2.79692351e-003 3.02578602e-003
      3.02969269e-003 3.61854560e-003 1.86744786e-003 1.45718700e-003
      1.44477747e-003 5.79199241e-003 7.81338010e-003 2.92390026e-003
      1.76845933e-003 2.16827518e-003 2.40005995e-003 3.95298423e-003
      1.77597383e-003 1.49733340e-003 5.49910637e-003 7.80158769e-003
      2.93060765e-003 2.55990098e-003 3.38757923e-003 3.79951647e-003
      3.96846049e-003 1.59005541e-003 2.01003603e-003 4.25837468e-003
      6.87745912e-003 1.42072735e-003 1.28606334e-003 2.56749918e-003
      4.35194606e-003 5.02008433e-003 1.71870040e-003 2.45195022e-003
      4.32087248e-003 5.65466424e-003 4.25961195e-003 1.36096869e-003
      2.23025493e-003 4.31615394e-003 4.50514024e-003 1.52799522e-003
      1.60798884e-003 3.10121570e-003 6.49564387e-003 1.56193075e-003
      1.43764832e-003 2.31254217e-003 4.61485935e-003 4.75940248e-003
      1.60714448e-003 1.91900344e-003 3.21566034e-003 5.66869788e-003
      3.50515288e-003 1.51200837e-003 3.28210322e-003 4.52133873e-003
      4.72802622e-003 1.56486733e-003 1.90494838e-003 2.04079552e-003
      5.16622001e-003 4.83849924e-003 1.07234064e-003 2.19957228e-003
      4.37369011e-003 3.78845353e-003 1.67163031e-003 1.41592266e-003
      1.93949067e-003 4.74624569e-003 3.20358668e-003 1.00270181e-003
      3.32132773e-003 4.54429071e-003 4.75869421e-003 1.69637753e-003
      1.62104459e-003 1.97997456e-003 5.10102557e-003 4.37163794e-003
      1.49977976e-003 2.89505511e-003 4.55838861e-003 4.82834829e-003
      2.12097005e-003 2.07595853e-003 2.95947539e-003 5.13459463e-003
      4.99175768e-003 1.42089929e-003 2.67444970e-003 4.70464444e-003
      3.89044546e-003 1.78600813e-003 1.04801939e-003 1.51135516e-003
      6.02427265e-003 3.08203697e-003 1.30023283e-003 2.53869896e-003
      5.03893662e-003 4.91866516e-003 1.74638571e-003 1.08647032e-003
      1.98867149e-003 6.42560748e-003 4.12578322e-003 1.14103104e-003
      2.28393730e-003 5.18672634e-003 3.87320062e-003 1.99809670e-003
      1.82801438e-003 3.46923596e-003 6.15468994e-003 3.33474041e-003
      1.56628911e-003 2.91294465e-003 4.36398247e-003 4.51573683e-003
      1.62436662e-003 1.14743947e-003 4.00928641e-003 6.29080739e-003
      2.78287847e-003 1.64349051e-003 2.80014845e-003 4.29045362e-003
      4.54575382e-003 1.28942425e-003 8.60863773e-004 2.32156622e-003
      6.32049376e-003 5.29405288e-003 1.53827330e-003 2.44778115e-003
      4.82235849e-003 4.35262639e-003 1.33431272e-003 1.60960085e-003
      1.48808712e-003 2.69024121e-003 1.84944808e-003 2.52574496e-003
      4.45928099e-003 4.85352799e-003 4.11236985e-003 1.15208526e-003
      9.16762976e-004 5.31295873e-003 6.25984604e-003 2.69492273e-003
      1.72995031e-003 2.65080738e-003 4.36355686e-003 3.91424308e-003
      1.26551348e-003 1.87529449e-003 1.45860319e-003 2.34047882e-003
      1.87663455e-003 3.30210291e-003 5.12773590e-003 4.14463412e-003
      4.96081775e-003 2.32444610e-003 4.24841186e-003 2.09148135e-003
      3.91613226e-003 2.71773641e-003 3.86210089e-003 4.72559547e-003
      6.04826910e-003 5.26416395e-003 2.84440583e-003 3.62104084e-003
      1.56372203e-003 3.56709165e-003 2.24503386e-003 3.36905522e-003
      3.35382205e-003 5.42929955e-003 4.85349679e-003 2.66656233e-003
      4.39087488e-003 2.04867730e-003 3.99826886e-003 2.88864016e-003
      5.11620333e-003 5.92667004e-003 5.03070094e-003 4.19115881e-003
      3.90670309e-003 3.98239400e-003 2.03334633e-003 3.73227545e-003
      2.19709426e-003 3.90686467e-003 2.90727429e-003 4.34144493e-003
      5.43696899e-003 2.22615199e-003 2.99996324e-003 1.21320970e-003
      5.46476291e-003 2.62095989e-003 4.44647716e-003 2.81970087e-003
      4.91395686e-003 8.46376549e-003 2.67726020e-003 3.69726936e-003
      4.73350985e-003 1.81796085e-002 3.30450945e-003 4.56370879e-003
      3.13890306e-003 8.36528186e-003 4.18841466e-003 2.77843722e-003
      4.96411556e-003 2.00736453e-003 5.88493701e-003 1.87576271e-003
      3.78610869e-003 2.52134539e-003 4.32844134e-003 6.34244643e-003
      2.60672532e-003 2.46198010e-003 2.29704077e-003 1.79295391e-002
      1.91775523e-003 3.68674379e-003 3.86152533e-003 6.61243405e-003
      5.71340555e-003 2.14005611e-003 1.86679524e-003 1.89621991e-003
      1.25019848e-002 1.52786542e-003 1.80636637e-003 2.08878703e-003
      6.56551402e-003 1.14200264e-002 2.85481615e-003 3.15796304e-003
      4.78365785e-003 2.05335449e-002 3.05532268e-003 3.16375494e-003
      3.75179783e-003 1.21705523e-002 3.86686902e-003 1.92501058e-003
      1.70314417e-003 1.89806090e-003 1.34114828e-002 1.57506554e-003
      1.92108727e-003 2.58437032e-003 4.25678724e-003 4.77641029e-003
      3.10307811e-003 3.30915651e-003 4.55261767e-003 1.56047009e-002
      4.44661453e-003 3.04066692e-003 3.57756065e-003 5.31398226e-003
      5.94769651e-003 2.28528725e-003 3.07129091e-003 3.47782415e-003
      2.15835683e-002 3.83072090e-003 4.23378358e-003 4.18447750e-003
      6.32257061e-003 6.53969264e-003 2.94290297e-003 5.08417608e-003
      3.17091309e-003 1.09110810e-002 7.56783132e-003 7.40603404e-003
      6.73031155e-003 6.99714106e-003 4.96901385e-003 3.48714902e-003
      3.86093627e-003 3.17438925e-003 2.09624041e-002 3.86920408e-003
      3.54727195e-003 4.07345733e-003 5.04022464e-003 5.52268745e-003
      4.17149393e-003 4.18251613e-003 3.35528632e-003 1.11535164e-002
      6.73218956e-003 6.90234173e-003 4.24873410e-003 5.49147697e-003
      5.84254973e-003 2.98980949e-003 4.43871273e-003 3.10063921e-003
      9.87576321e-003 3.97058576e-003 3.39501700e-003 3.61705292e-003
      6.70201285e-003 6.75167656e-003 4.21759905e-003 3.91642097e-003
      5.76730352e-003 8.88479222e-003 4.84848209e-003 3.62164830e-003
      5.61236730e-003 7.27496576e-003 6.01416873e-003 4.72105388e-003
      5.04096411e-003 3.37630860e-003 9.65093076e-003 4.12025582e-003
      3.76214855e-003 3.63421813e-003 6.21467130e-003 6.97048102e-003
      4.15252708e-003 4.75802924e-003 3.75550264e-003 8.97127483e-003
      5.27612492e-003 4.68137767e-003 7.61793740e-003 8.12692754e-003
      7.14920461e-003 3.76481540e-003 3.01445415e-003 5.24552586e-003
      6.63808407e-003 4.75892285e-003 4.00782190e-003 6.05402468e-003
      8.56342353e-003 7.55135622e-003 3.85383889e-003 3.92586878e-003
      3.19728418e-003 7.37171760e-003 3.66614689e-003 4.72040335e-003
      4.42565046e-003 7.96806626e-003 7.47899711e-003 2.54867924e-003
      3.57379462e-003 4.01021261e-003 7.35596940e-003 4.17136820e-003
      4.36416361e-003 8.56718142e-003 8.71486589e-003 7.90322572e-003
      3.11740860e-003 4.08431375e-003 4.54673916e-003 7.52917724e-003
      3.16110789e-003 4.57965583e-003 6.45079976e-003 8.74874089e-003
      6.64319936e-003 3.76023306e-003 3.42567568e-003 2.30114558e-003
      8.07570759e-003 3.57423979e-003 4.23516659e-003 3.75420670e-003
      7.27993855e-003 6.58587925e-003 3.70641728e-003 3.30589386e-003
      1.88610761e-003 8.18005763e-003 3.39122745e-003 5.95451705e-003
      6.68892311e-003 6.98062126e-003 7.92126916e-003 4.10581613e-003
      4.47931979e-003 3.54829710e-003 8.31629336e-003 3.30140814e-003
      4.89501702e-003 4.67675272e-003 8.91170837e-003 6.81820372e-003
      4.11666883e-003 4.36272286e-003 2.48042447e-003 8.17350671e-003
      4.29496774e-003 6.64872490e-003 6.79980079e-003 7.45340297e-003
      3.31694796e-003 3.15929507e-003 4.08731913e-003 2.19910708e-003
      9.05702636e-003 3.57840373e-003 6.16046460e-003 5.81971044e-003
      5.35989180e-003 6.25368208e-003 5.28712431e-003 8.38328898e-003
      5.78099955e-003 1.46806678e-002 5.81136206e-003 1.04876896e-002
      8.16906895e-003 7.98831508e-003 3.74763086e-003 4.61754575e-003
      6.26270194e-003 3.02930223e-003 7.81593192e-003 3.76891624e-003
      5.67130698e-003 6.67311251e-003 5.57134068e-003 7.02877250e-003
      7.49326684e-003 9.48013738e-003 7.42435409e-003 1.42648257e-002
      5.58297615e-003 9.84183513e-003 8.42514727e-003 8.64327885e-003
      6.31387904e-003 4.88827331e-003 6.56256732e-003 5.08141750e-003
      8.87923129e-003 4.34049172e-003 6.56839600e-003 6.58702943e-003
      8.19152221e-003 9.58670955e-003 5.49087627e-003 7.76675344e-003
      7.18355738e-003 7.60195265e-003 3.70739494e-003 6.66947523e-003
      7.62153883e-003 9.26331058e-003 7.65423011e-003 6.46290556e-003
      8.07221700e-003 5.45978313e-003 8.92926473e-003 4.32749651e-003
      7.12266564e-003 7.67612178e-003 8.45630374e-003 1.12346606e-002
      7.33535830e-003 9.71678738e-003 7.52719631e-003 9.91811231e-003
      5.23130596e-003 6.90534851e-003 8.98597669e-003 1.07919769e-002
      3.12987319e-003 1.79460645e-003 3.27820168e-003 3.79775115e-003
      3.99500038e-003 1.28196110e-003 1.33848237e-003 8.95077537e-004
      3.04749236e-003 5.53769525e-003 3.09976889e-003 4.34190733e-003
      7.63859507e-003 9.69080999e-003 5.72287710e-003 5.20202611e-003
      2.63415813e-003 5.05886041e-003 1.08151464e-002 1.88638712e-003
      3.58797144e-003 3.52303474e-003 4.72252350e-003 1.16684905e-003
      1.13851740e-003 4.84106160e-004 1.04493909e-002 1.10104792e-002
      1.73915667e-003 2.67599081e-003 5.74027980e-003 8.54059123e-003
      2.18724553e-003 3.12743755e-003 1.34242210e-003 1.04373414e-002
      3.85818491e-003 1.41241867e-003 1.07114459e-003 4.77266265e-003
      5.85935172e-003 2.89656036e-003 2.29806360e-003 3.54254874e-003
      5.14525361e-003 5.85489860e-003 2.16939556e-003 1.42678840e-003
      4.39337548e-003 6.13497384e-003 3.37414024e-003 3.46484524e-003
      5.22667449e-003 5.62599627e-003 1.04670795e-002 1.44989090e-003
      1.00727915e-003 4.57847491e-003 7.78815337e-003 1.57599244e-003
      5.76193118e-003 2.49929307e-003 1.01051228e-002 1.05860401e-002
      2.00096355e-003 2.00809794e-003 4.31570085e-003 8.52594525e-003
      2.25738296e-003 5.00507327e-003 2.20685988e-003 1.03799170e-002
      5.74348448e-003 1.98848941e-003 1.66760618e-003 2.60519888e-003
      5.88742783e-003 1.58711651e-003 1.68396952e-003 3.07266554e-003
      5.57148317e-003 5.77606773e-003 1.52702723e-003 1.43330905e-003
      2.36845692e-003 5.64882671e-003 2.78454740e-003 2.88868463e-003
      4.90677776e-003 5.49368421e-003 1.12037212e-002 2.33648531e-003
      2.35435553e-003 3.12206475e-003 8.36179405e-003 1.29030179e-003
      2.63915421e-003 2.01572431e-003 1.10992035e-002 9.87764169e-003
      4.46887268e-003 5.99445123e-003 2.55663646e-003 8.37097038e-003
      3.74768605e-003 2.90390919e-003 2.44232011e-003 9.71789472e-003
      5.87136205e-003 2.09607347e-003 1.61817926e-003 1.60100148e-003
      4.23509628e-003 3.70228011e-003 2.98116333e-003 4.26735962e-003
      5.63554745e-003 5.96942101e-003 2.68199039e-003 2.99048750e-003
      4.55831597e-003 4.29030228e-003 4.42809565e-003 2.19986285e-003
      1.96445361e-003 5.39189298e-003 9.15433094e-003 4.95053222e-003
      5.76625811e-003 1.08619058e-003 7.89165031e-003 3.93199828e-003
      4.25437558e-003 1.86481420e-003 8.72875843e-003 1.07958717e-002
      5.38282422e-003 3.13390582e-003 2.18235957e-003 8.39179754e-003
      4.21617134e-003 4.71761869e-003 3.81970149e-003 1.07195117e-002
      5.84901823e-003 2.40724348e-003 2.92418222e-003 5.47872437e-003
      5.71461767e-003 2.96667544e-003 1.66608684e-003 3.35492264e-003
      5.19685214e-003 5.53078251e-003 1.72232534e-003 1.67986134e-003
      3.67902638e-003 5.77054732e-003 2.29956559e-003 1.79296848e-003
      3.57836834e-003 4.98387916e-003 1.02874711e-002 4.35992563e-003
      2.01478298e-003 3.24172084e-003 7.81445019e-003 2.85895867e-003
      2.77197477e-003 2.88914610e-003 1.02079427e-002 9.95877013e-003
      5.42472303e-003 1.91790122e-003 2.84382422e-003 7.15686614e-003
      3.38904723e-003 3.26842535e-003 4.31749225e-003 1.10300295e-002
      5.05032670e-003 1.12103927e-003 9.70565830e-004 3.61680915e-003
      5.21120057e-003 2.79658171e-003 1.68026390e-003 3.11049540e-003
      4.88034170e-003 5.17533999e-003 1.42636802e-003 1.61557808e-003
      1.08965568e-003 1.79606909e-003 2.88101821e-003 3.80686554e-003
      6.23477250e-003 5.16679976e-003 1.01889940e-002 2.96050031e-003
      1.29355327e-003 1.95846846e-003 7.28672603e-003 4.80367523e-003
      3.06459260e-003 6.48611505e-003 1.41395098e-002 1.20126596e-002
      1.89717265e-003 1.38689706e-003 1.02654658e-003 4.04218119e-003
      1.90948567e-003 3.18251085e-003 3.81786330e-003 1.51067544e-002
      5.35559747e-003 2.27167760e-003 3.36914440e-003 1.19513762e-003
      3.71525134e-003 1.94815209e-003 5.80304535e-003 5.95831592e-003
      5.33261616e-003 4.56627272e-003 3.31395841e-003 3.41377012e-003
      1.42537628e-003 3.97864776e-003 1.89363549e-003 4.16576536e-003
      3.50788445e-003 4.66243224e-003 1.36912493e-002 2.34483532e-003
      2.19807075e-003 9.53102019e-004 6.12015836e-003 1.92011357e-003
      6.34415634e-003 6.36827433e-003 1.47176664e-002 1.10926200e-002
      3.58436047e-003 2.16301414e-003 1.03162823e-003 6.86032604e-003
      1.37201231e-003 5.59806637e-003 6.16569584e-003 1.29501466e-002
      4.72803088e-003 1.85466569e-003 3.35285231e-003 1.16604648e-003
      6.70381589e-003 1.80021976e-003 3.16985836e-003 2.66073784e-003
      4.88355896e-003 9.82001517e-003 1.80853996e-003 1.87626376e-003
      1.11169775e-003 1.71935447e-002 2.97259423e-003 6.13112934e-003
      4.43094643e-003 1.08482623e-002 1.00629134e-002 4.80417628e-003
      3.25193536e-003 7.86506396e-004 9.71959438e-003 1.59053621e-003
      6.19828980e-003 6.19899342e-003 1.18335262e-002 1.12809138e-002
      3.96037241e-003 2.32511736e-003 8.07970588e-004 1.84066892e-002
      7.88642792e-004 3.17518250e-003 5.68583561e-003 1.22402050e-002
      3.75012169e-003 1.99511438e-003 2.28856574e-003 2.05828203e-003
      1.47810504e-002 1.08565635e-003 2.57353811e-003 3.43239564e-003
      3.96306673e-003 4.12208633e-003 3.32902488e-003 2.75629386e-003
      4.22345055e-003 1.78226642e-002 3.04049952e-003 2.68051890e-003
      4.73054219e-003 4.36170818e-003 1.04715750e-002 4.13166266e-003
      3.14940210e-003 1.04395067e-003 1.70160942e-002 8.34519335e-004
      2.02683057e-003 3.63203092e-003 1.02796340e-002 1.57376193e-002
      2.66169989e-003 2.58517708e-003 2.13848962e-003 1.87374204e-002
      2.97009433e-003 1.94722880e-003 3.38580739e-003 1.60085224e-002
      5.22135664e-003 4.01342195e-003 3.06066126e-003 3.64827807e-003
      1.93513818e-002 3.11118318e-003 2.25207605e-003 3.31010134e-003
      5.12422761e-003 6.31724112e-003 4.43500699e-003 4.22901521e-003
      4.26047482e-003 1.36002209e-002 3.17485584e-003 3.54245561e-003
      3.67231457e-003 5.61863417e-003 1.45930918e-002 1.69699010e-003
      1.68341480e-003 2.95067113e-003 2.35223267e-002 3.01083992e-003
      2.23746058e-003 2.65713385e-003 1.54717769e-002 1.40447458e-002
      4.95644379e-003 3.56946141e-003 3.11814621e-003 1.53391147e-002
      2.70723342e-003 2.93752667e-003 5.38239256e-003 1.67051796e-002
      5.32242935e-003 3.52257257e-003 3.39120626e-003 2.52820505e-003
      8.68055131e-003 2.61699245e-003 3.53882345e-003 3.31039377e-003
      5.49305417e-003 5.28816646e-003 3.83447111e-003 4.18259390e-003
      3.93919554e-003 9.32964310e-003 4.78024827e-003 5.62710082e-003
      7.58569175e-003 6.43972075e-003 1.32816965e-002 3.36408918e-003
      3.79032432e-003 1.65109045e-003 1.11589627e-002 3.90970893e-003
      3.56375938e-003 6.27843523e-003 1.47689711e-002 1.47130918e-002
      5.90128638e-003 5.49341459e-003 4.96625807e-003 1.33854086e-002
      7.42294174e-003 6.36125682e-003 8.19118414e-003 1.57370754e-002
      5.56345470e-003 2.19935086e-003 2.92282668e-003 3.14377015e-003
      6.49288110e-003 2.94483174e-003 4.44936752e-003 7.16219610e-003
      6.40889909e-003 6.26714714e-003 2.12629791e-003 2.99264048e-003
      3.73709877e-003 6.24095136e-003 3.15535394e-003 5.43755107e-003
      6.24563638e-003 7.69222574e-003 1.36331338e-002 5.42157888e-003
      4.38093068e-003 4.84764250e-003 1.12618739e-002 4.61866613e-003
      6.36612670e-003 9.35899839e-003 1.50197279e-002 1.77105330e-002
      7.39918184e-003 7.95526151e-003 8.14040843e-003 1.23439971e-002
      4.49293666e-003 1.11970250e-002 1.05828410e-002 1.82762761e-002
      5.91310253e-003 2.48386874e-003 2.72988947e-003 3.75759648e-003
      3.27114086e-003 2.31674942e-003 3.60923447e-003 3.91578535e-003
      6.35012332e-003 6.32205838e-003 3.44471494e-003 3.94460838e-003
      3.43877543e-003 4.38168459e-003 3.17198643e-003 4.60984139e-003
      5.54471090e-003 5.97432349e-003 1.90526433e-002 6.06999081e-003
      6.08263677e-003 4.99401987e-003 7.89667852e-003 3.26822512e-003
      6.89666159e-003 6.58046175e-003 1.97114367e-002 2.33150907e-002
      4.90010157e-003 6.60882611e-003 4.01227642e-003 7.05438573e-003
      3.03635630e-003 4.74620145e-003 4.74316766e-003 2.31355913e-002
      4.88859462e-003 3.86909605e-003 4.92187962e-003 3.21004516e-003
      3.87242856e-003 3.76241026e-003 4.57783835e-003 6.58690045e-003
      5.01406519e-003 6.90660765e-003 6.56706560e-003 8.92576296e-003
      4.66829352e-003 9.32713412e-003 3.53163015e-003 5.19723725e-003
      6.43765461e-003 7.32418615e-003 2.00514309e-002 3.65706068e-003
      7.19315931e-003 3.07425880e-003 5.65137062e-003 1.67530274e-003
      4.05793730e-003 4.79519507e-003 2.00136565e-002 2.36993581e-002
      6.30427431e-003 1.08992271e-002 3.19324574e-003 1.14971893e-002
      1.83494005e-003 7.84751959e-003 8.08596704e-003 2.40465142e-002
      6.82280073e-003 4.75092884e-003 6.58483664e-003 2.88468762e-003
      6.19350839e-003 2.99211894e-003 4.29881411e-003 5.56680001e-003
      6.92221150e-003 7.82717019e-003 5.51527459e-003 7.95651041e-003
      2.94787623e-003 7.56578939e-003 3.47539852e-003 5.47682354e-003
      7.28028314e-003 7.90913776e-003 2.29082685e-002 4.47615003e-003
      5.98491309e-003 2.47977022e-003 8.25208984e-003 2.18880130e-003
      6.41759997e-003 6.38502557e-003 2.32835673e-002 2.34155208e-002
      5.40567888e-003 7.35947397e-003 3.61458608e-003 8.91648047e-003
      3.12411669e-003 7.42064137e-003 6.84388075e-003 2.32033189e-002
      7.67965941e-003 1.31119718e-003 2.91005848e-003 2.44534016e-003
      4.45968565e-003 9.88817308e-004 1.33976236e-003 6.37058984e-004
      7.69144995e-003 8.05608835e-003 1.54299312e-003 2.60924874e-003
      4.37973160e-003 9.75609850e-003 1.86198135e-003 2.66009779e-003
      1.10102934e-003 7.88303558e-003 7.73906941e-003 1.03342696e-003
      2.59087002e-003 2.03956850e-003 5.52526722e-003 1.80959096e-003
      2.43522367e-003 1.35154184e-003 7.74715934e-003 7.65580265e-003
      1.37981691e-003 2.59576505e-003 3.96376615e-003 9.46323760e-003
      3.87637923e-003 2.46860110e-003 1.11654610e-003 7.60581950e-003
      7.54613010e-003 1.04104029e-003 1.40208914e-003 4.18194989e-003
      8.09236150e-003 1.31943217e-003 4.27047536e-003 1.78648799e-003
      7.60697806e-003 7.93462340e-003 1.74866500e-003 2.58335820e-003
      3.98324942e-003 8.00392777e-003 1.54345238e-003 4.39642649e-003
      1.99875422e-003 7.91970640e-003 7.26741645e-003 8.87487200e-004
      1.73857796e-003 3.96925537e-003 7.77157536e-003 1.34278275e-003
      3.18244100e-003 1.59896258e-003 7.20371306e-003 7.59576494e-003
      1.83943019e-003 3.85359558e-003 3.78839392e-003 7.97724351e-003
      1.09734980e-003 4.35344223e-003 2.46525067e-003 7.66446861e-003
      7.97450915e-003 2.01131124e-003 2.59912387e-003 2.90653203e-003
      7.37652555e-003 9.34090873e-004 2.39848508e-003 1.91092119e-003
      7.73705728e-003 7.95503147e-003 2.99417996e-003 3.12290015e-003
      2.54440168e-003 8.30695964e-003 3.09319701e-003 3.01780063e-003
      2.49725534e-003 7.88494479e-003 7.29113212e-003 2.04783096e-003
      3.17026000e-003 2.09250092e-003 8.53190664e-003 9.79172066e-004
      3.91589478e-003 3.04667652e-003 7.38350349e-003 7.43631367e-003
      2.43957620e-003 2.34612264e-003 2.83865468e-003 9.30602569e-003
      1.93152786e-003 3.57449194e-003 3.39385844e-003 7.75936758e-003
      7.48431915e-003 3.32464627e-003 3.58299958e-003 1.11997628e-003
      7.43431784e-003 4.45781229e-003 4.11204249e-003 1.76499074e-003
      7.43281981e-003 6.93398621e-003 3.24100512e-003 2.32152292e-003
      2.10598647e-003 1.71193909e-002 4.27690521e-003 4.22241073e-003
      3.10424203e-003 7.33827474e-003 6.86575286e-003 2.08569085e-003
      2.31362390e-003 2.25684443e-003 8.07251595e-003 2.73633515e-003
      2.66183354e-003 2.21735262e-003 7.41320429e-003 6.96347747e-003
      1.88420981e-003 1.85863092e-003 2.51771160e-003 7.77095044e-003
      2.30902038e-003 3.36187100e-003 2.43850984e-003 7.63560971e-003
      8.44087545e-003 3.10876500e-003 1.79474859e-003 2.33487878e-003
      8.01615510e-003 2.93872599e-003 4.66639316e-003 4.38749185e-003
      9.46406648e-003 1.32932402e-002 6.19109720e-003 2.58370023e-003
      1.85484532e-003 8.24865699e-003 4.46861191e-003 6.85290014e-003
      8.41448270e-003 1.61171164e-002 7.31534278e-003 2.02339259e-003
      1.61514769e-003 1.60364725e-003 5.69937006e-003 2.46602949e-003
      3.73499864e-003 3.07327532e-003 8.47630203e-003 8.82036891e-003
      2.86720623e-003 2.86898552e-003 1.52227993e-003 5.15038334e-003
      2.46146298e-003 3.82287800e-003 4.88275988e-003 1.04427524e-002
      1.16798803e-002 4.38856659e-003 2.60703918e-003 1.63032801e-003
      4.35002660e-003 2.66395463e-003 3.74616915e-003 7.03035062e-003
      1.49874287e-002 1.16439201e-002 3.31071997e-003 3.33238137e-003
      2.03975011e-003 4.26319754e-003 2.65359390e-003 4.20641713e-003
      4.77309851e-003 1.44941248e-002 7.49886734e-003 1.92095025e-003
      2.57879682e-003 1.20366376e-003 4.85329516e-003 3.06851882e-003
      5.55105787e-003 5.06750075e-003 1.03811417e-002 6.88994629e-003
      1.80520525e-003 2.92795734e-003 1.24173181e-003 7.09940819e-003
      4.11633542e-003 6.31509954e-003 4.69721388e-003 8.89694039e-003
      1.13374963e-002 2.78046378e-003 3.62550258e-003 2.13693222e-003
      6.69952761e-003 4.52451874e-003 6.62775151e-003 5.41760353e-003
      1.18241161e-002 1.10159582e-002 4.44963854e-003 5.62875066e-003
      2.44611572e-003 8.35005380e-003 1.70737505e-003 4.49579488e-003
      4.57879109e-003 1.03441840e-002 6.45174226e-003 1.42328441e-003
      2.60012248e-003 1.69872819e-003 9.10022110e-003 5.29128732e-003
      7.58642191e-003 3.67809343e-003 7.12662563e-003 6.01280713e-003
      2.59224209e-003 5.27149951e-003 6.98391174e-004 9.19885095e-003
      1.19203748e-003 3.58713418e-003 2.87208706e-003 6.31788047e-003
      9.71526932e-003 4.70693782e-003 5.53907594e-003 1.74981379e-003
      1.14048934e-002 1.73173577e-003 7.10136304e-003 5.44423005e-003
      9.58437752e-003 1.04568340e-002 5.63918380e-003 4.62321099e-003
      1.91899098e-003 2.13545132e-002 9.61441663e-004 5.94175095e-003
      5.77908382e-003 1.02629196e-002 5.20111993e-003 3.16184992e-003
      5.92605211e-003 4.99670568e-004 1.25500010e-002 8.83733970e-004
      5.13649406e-003 3.77472909e-003 5.44420397e-003 1.15248999e-002
      8.35757423e-003 9.63210594e-003 2.78503750e-003 2.67558526e-002
      1.90074218e-003 7.46955816e-003 4.39543882e-003 1.01048583e-002
      1.01224585e-002 4.94008930e-003 4.10302263e-003 2.10220180e-003
      1.87535640e-002 1.11872971e-003 4.01988160e-003 4.79094172e-003
      9.78640839e-003 1.25863431e-002 4.70607914e-003 4.28074365e-003
      3.59130604e-003 1.98379718e-002 4.73103812e-003 3.85772577e-003
      3.64793465e-003 1.27021680e-002 1.01010595e-002 3.06255533e-003
      5.39457100e-003 1.00052275e-003 1.73644274e-002 1.23738952e-003
      7.12489616e-003 3.52515490e-003 9.76037234e-003 1.61393713e-002
      3.16832680e-003 6.78773038e-003 2.21002265e-003 3.30063626e-002
      4.74567339e-003 8.42054281e-003 3.40694725e-003 1.55316759e-002
      1.25718201e-002 3.30533367e-003 3.16624367e-003 3.48450802e-003
      2.14352291e-002 4.11223155e-003 4.18084161e-003 3.61953815e-003
      1.27907349e-002 1.37688788e-002 6.47955434e-003 4.22888156e-003
      2.91157071e-003 1.34578971e-002 2.86320061e-003 4.66455426e-003
      7.57656433e-003 1.43472645e-002 1.32360868e-002 2.70216493e-003
      6.33652834e-003 3.48351523e-003 2.55394224e-002 3.92084755e-003
      7.17959926e-003 3.02883540e-003 1.28929233e-002 1.48768472e-002
      5.34940045e-003 8.89052544e-003 5.01027843e-003 1.56407766e-002
      2.35263514e-003 7.78875547e-003 4.85857716e-003 1.51194138e-002
      1.15181897e-002 4.20445018e-003 3.56061151e-003 1.54194888e-003
      9.99112241e-003 3.34779266e-003 3.74897360e-003 5.87712508e-003
      1.23485895e-002 1.49855129e-002 5.62770106e-003 6.01372868e-003
      3.30697163e-003 1.14202956e-002 5.63841220e-003 5.59651479e-003
      1.00735053e-002 1.52821038e-002 1.46103576e-002 3.70157952e-003
      5.25665842e-003 3.00689996e-003 1.29087456e-002 2.87939725e-003
      8.53590667e-003 5.33004478e-003 1.44807324e-002 1.40132550e-002
      7.42881699e-003 7.72001268e-003 4.93010180e-003 1.37198931e-002
      4.38656053e-003 8.52564536e-003 6.85170759e-003 1.44130746e-002
      1.31172398e-002 3.74137866e-003 3.50974197e-003 2.59517902e-003
      6.01987261e-003 3.02759139e-003 5.73393796e-003 8.24049301e-003
      1.21023469e-002 1.66582484e-002 4.34582727e-003 6.37565227e-003
      6.80315308e-003 1.35292318e-002 4.07288643e-003 9.48077161e-003
      8.15787632e-003 1.54582746e-002 9.73622128e-003 3.57143907e-003
      4.65653371e-003 2.68909847e-003 1.59152690e-002 3.04153492e-003
      4.03018529e-003 4.45926888e-003 8.99306126e-003 1.18582975e-002
      5.82741294e-003 6.87625399e-003 7.43893534e-003 1.32911857e-002
      4.73951548e-003 5.44446893e-003 4.81800642e-003 1.08518656e-002
      1.74264703e-002 4.94369399e-003 5.04603935e-003 4.96402895e-003
      1.03495503e-002 3.51940678e-003 5.43316873e-003 4.85415477e-003
      1.80341918e-002 1.84661597e-002 4.14003292e-003 5.21355635e-003
      3.62288463e-003 6.31263806e-003 3.02124419e-003 4.16788692e-003
      3.68355820e-003 1.82152521e-002 1.24186529e-002 5.76806162e-003
      6.07715826e-003 3.83747206e-003 1.07942922e-002 3.95337865e-003
      4.65484709e-003 3.72846075e-003 1.20667377e-002 1.34504074e-002
      7.52229383e-003 6.55831769e-003 2.44130031e-003 7.96081405e-003
      3.26544885e-003 5.70388651e-003 3.54933203e-003 1.31293833e-002
      1.81127302e-002 3.17025790e-003 5.47771342e-003 2.11854791e-003
      5.21681970e-003 1.75179355e-003 3.29323253e-003 3.68061103e-003
      1.75571460e-002 1.87586732e-002 4.25311085e-003 6.41165860e-003
      2.81783193e-003 1.38061168e-002 2.21519801e-003 7.28596561e-003
      8.95292405e-003 1.92872174e-002 1.33369016e-002 5.54622291e-003
      5.57609042e-003 3.02871433e-003 7.22623989e-003 3.00523872e-003
      3.93897016e-003 3.15790903e-003 1.33797154e-002 1.40554002e-002
      6.37102732e-003 6.94073085e-003 5.08332253e-003 1.43776601e-002
      4.36225394e-003 5.75176300e-003 4.77536023e-003 1.48209389e-002
      1.89672671e-002 3.18359700e-003 4.10825573e-003 2.64007668e-003
      8.13980214e-003 2.29762867e-003 6.79216720e-003 7.36229634e-003
      1.93939824e-002 2.09245551e-002 4.62388294e-003 6.23730337e-003
      2.84379907e-003 7.15459976e-003 3.14390939e-003 7.59172579e-003
      6.24446664e-003 2.08873767e-002 1.41219376e-002 5.11203054e-003
      4.56800312e-003 4.40643728e-003 9.58848745e-003 2.78841588e-003
      6.03281334e-003 4.45585418e-003 1.46079371e-002 1.71452891e-002
      5.51704038e-003 4.69911098e-003 4.53240657e-003 8.83281045e-003
      3.10629420e-003 7.86136370e-003 6.08703168e-003 1.75200403e-002
      9.12988372e-003 1.17065862e-003 2.63781636e-003 2.21140287e-003
      6.32119039e-003 2.21548369e-003 3.04382178e-003 1.34612771e-003
      9.31533147e-003 9.94621497e-003 1.36673183e-003 3.01284273e-003
      4.92755556e-003 1.07602971e-002 3.13727139e-003 2.34659761e-003
      1.08772714e-003 1.03646554e-002 1.21215044e-003 1.07267301e-003
      1.98349287e-003 2.61803647e-003 2.23941496e-003 2.02550320e-003
      2.08148081e-003 1.69082847e-003 1.07357383e-003 9.44255909e-004
      1.12920674e-003 2.42346991e-003 6.02729199e-003 5.66294417e-003
      2.00517499e-003 1.56437384e-003 1.12856471e-003 9.26671142e-004
      8.93088803e-003 1.42032094e-003 2.18956545e-003 3.99984093e-003
      8.63227993e-003 1.27870438e-003 3.15355253e-003 2.11966084e-003
      9.06157214e-003 1.06527926e-002 2.52870214e-003 4.82091494e-003
      2.89491331e-003 9.09930561e-003 1.28240895e-003 5.44006703e-003
      3.48985265e-003 1.09004918e-002 1.61223218e-003 1.67739717e-003
      1.38255500e-003 4.45293542e-003 4.45630122e-003 8.78064602e-004
      6.76698517e-004 9.64814448e-004 1.06092426e-003 2.66970065e-003
      1.96209480e-003 1.14815508e-003 4.57786070e-003 4.34905710e-003
      2.12849537e-003 1.71018345e-003 2.39767367e-003 1.99848111e-003
      7.80172274e-003 1.62706967e-003 3.31637915e-003 1.27079675e-003
      9.87442676e-003 1.32743304e-003 5.63611928e-003 3.21485242e-003
      8.43047351e-003 9.92301479e-003 1.16904988e-003 1.83538604e-003
      2.32496834e-003 1.15420027e-002 1.30987621e-003 4.22891043e-003
      2.62953667e-003 1.06626870e-002 1.31452130e-003 9.25675675e-004
      8.12234008e-004 3.59163131e-003 4.60524438e-003 2.39093695e-003
      1.78349484e-003 1.78183906e-003 1.28110580e-003 1.07646140e-003
      1.12359272e-003 1.43183279e-003 5.15981531e-003 4.81898477e-003
      1.39398815e-003 1.63418846e-003 1.29326654e-003 1.16649212e-003
      9.23265144e-003 9.74210852e-004 1.35317002e-003 2.87496811e-003
      9.05869436e-003 1.19454076e-003 2.72913789e-003 2.01496156e-003
      9.98151675e-003 1.00899432e-002 9.32770432e-004 1.30912219e-003
      2.89838319e-003 8.97110067e-003 1.40555168e-003 3.35137849e-003
      2.11642194e-003 1.07218456e-002 1.05379696e-003 1.07421877e-003
      1.48076634e-003 4.76901326e-003 4.40488756e-003 7.83515454e-004
      1.23482815e-003 1.29164918e-003 1.09718554e-003 8.98079074e-004
      1.62779551e-003 3.12800473e-003 4.63054096e-003 4.35463991e-003
      1.04540563e-003 1.44916645e-003 1.33293110e-003 1.05219230e-003
      9.45540890e-003 1.42407313e-003 1.52163452e-003 1.45588233e-003
      6.91799959e-003 2.56801676e-003 3.58733023e-003 2.28758063e-003
      1.00613544e-002 1.28104845e-002 2.75503471e-003 3.12803197e-003
      1.40554761e-003 7.00401841e-003 2.73671397e-003 3.45246331e-003
      3.27976141e-003 1.33989463e-002 1.60117808e-003 4.04444523e-003
      4.09257598e-003 1.78137608e-003 1.99162262e-003 1.35745597e-003
      1.77236053e-003 1.47718121e-003 1.18828588e-003 3.78203718e-003
      4.03434644e-003 3.96853173e-003 7.90463877e-004 7.76605506e-004
      1.18859264e-003 1.84853259e-003 2.35977373e-003 3.71075538e-003
      1.13638630e-002 2.06045364e-003 3.57665610e-003 1.54276576e-003
      6.34315889e-003 2.37969169e-003 4.91240015e-003 2.87813414e-003
      1.23171369e-002 9.85030271e-003 2.09637475e-003 4.66799969e-003
      3.22677824e-003 6.82835653e-003 3.67779378e-003 6.70442265e-003
      2.94523174e-003 1.02319773e-002 3.10886349e-003 3.78454942e-003
      2.67975777e-003 1.77406694e-003 1.10733940e-003 1.07752031e-003
      1.74315250e-003 1.91024959e-003 3.32843955e-003 2.23878259e-003
      1.97724672e-003 3.32182553e-003 3.44790122e-003 3.39860935e-003
      1.83981599e-003 1.72450417e-003 1.64313451e-003 2.43201479e-003
      8.02759919e-003 1.67663349e-003 3.94245004e-003 4.73383861e-003
      9.15326178e-003 4.80196672e-003 5.59967663e-003 2.28950800e-003
      8.35623965e-003 8.68987944e-003 2.83386046e-003 6.89749420e-003
      5.15517895e-004 1.15550952e-002 8.74247693e-004 3.04940646e-003
      1.75927230e-003 9.10816435e-003 1.15958566e-003 1.56235020e-003
      3.54887173e-003 4.77116928e-003 4.88095917e-003 1.96502893e-003
      1.69463048e-003 1.53430144e-003 1.26470020e-003 9.08380782e-004
      1.30754977e-003 1.50648027e-003 1.11472001e-003 7.85746332e-003
      8.42420384e-004 1.60231267e-003 1.65389746e-003 1.73136382e-003
      7.23890541e-003 3.09161306e-003 7.35255657e-003 4.79038194e-004
      1.38307856e-002 6.50932314e-004 4.19056136e-003 2.25938507e-003
      7.50569534e-003 1.20771611e-002 6.19224971e-003 7.56293209e-003
      2.65985331e-003 2.95799114e-002 3.45851714e-003 1.06587131e-002
      6.04077242e-003 1.22076329e-002 3.70502123e-003 2.21584644e-003
      3.22712539e-003 9.58763878e-004 7.61427591e-003 9.84222163e-004
      2.36007688e-003 2.31763651e-003 4.19215765e-003 7.90179241e-003
      2.11541797e-003 3.04203108e-003 1.73541461e-003 3.18883955e-002
      3.15453811e-003 5.95305115e-003 4.64818068e-003 9.01093800e-003
      1.11112455e-002 1.89502689e-003 4.08059778e-003 1.55661430e-003
      1.88471731e-002 1.14973146e-003 7.94940535e-003 3.80067597e-003
      1.12760514e-002 1.54933622e-002 4.14590817e-003 8.13723262e-003
      3.79028986e-003 2.06188001e-002 3.24178790e-003 7.02433567e-003
      4.75937920e-003 1.54052135e-002 5.60587179e-003 1.65583799e-003
      3.07430769e-003 1.44760183e-003 1.52675705e-002 1.23326399e-003
      4.38730465e-003 2.46911426e-003 6.16500620e-003 1.01778237e-002
      4.54236148e-003 8.27598758e-003 4.76007722e-003 2.30928455e-002
      5.47988154e-003 8.04764871e-003 4.98112570e-003 1.09786624e-002
      1.36079099e-002 3.02013941e-003 6.35756040e-003 2.76483642e-003
      1.93617046e-002 3.33882775e-003 6.73715118e-003 4.19234810e-003
      1.30773429e-002 1.96208879e-002 4.71654255e-003 4.77650948e-003
      2.33574212e-003 8.33316147e-003 1.76045869e-003 5.38631622e-003
      3.16091930e-003 1.48438616e-002 6.95457775e-003 3.07475124e-003
      4.30250587e-003 4.30381717e-003 2.41734665e-002 3.68382665e-003
      5.02191298e-003 4.26880550e-003 5.93661936e-003 9.70389321e-003
      6.46394910e-003 7.39369495e-003 5.20672277e-003 9.05253738e-003
      3.31349717e-003 3.43138492e-003 3.15507036e-003 6.67803502e-003
      1.73045360e-002 4.47635585e-003 4.31156252e-003 2.57168524e-003
      1.04696816e-002 2.90148985e-003 6.85539749e-003 3.40531254e-003
      1.25232302e-002 1.67127363e-002 7.17857154e-003 6.23226678e-003
      3.26805701e-003 1.18803037e-002 3.13983602e-003 5.51614538e-003
      3.67887970e-003 1.31165115e-002 1.03304936e-002 7.50295911e-003
      4.75097355e-003 2.72354204e-003 6.14377530e-003 2.61517963e-003
      3.18754558e-003 3.12401238e-003 6.15054648e-003 8.08755402e-003
      8.04705732e-003 4.48285695e-003 3.77716846e-003 6.71870029e-003
      2.90202722e-003 4.04115813e-003 3.58809158e-003 5.86187001e-003
      1.31929256e-002 5.23731112e-003 4.91358945e-003 2.75196694e-003
      1.42017575e-002 2.67989910e-003 3.48846847e-003 3.63292592e-003
      1.19591225e-002 1.60301346e-002 7.12560769e-003 6.40778197e-003
      3.99545394e-003 1.19841825e-002 3.16132628e-003 3.93630099e-003
      3.48612340e-003 1.39463386e-002 5.40175708e-003 5.72731439e-003
      4.06290498e-003 5.00852801e-003 9.27951839e-003 2.51851627e-003
      4.01224522e-003 3.39679676e-003 5.29980240e-003 6.25950145e-003
      6.59613311e-003 7.16988835e-003 5.99107426e-003 6.46115141e-003
      3.57533782e-003 4.69956314e-003 3.77980690e-003 5.47672296e-003
      1.48071796e-002 7.41793448e-003 6.95304805e-003 3.09137302e-003
      1.31927226e-002 3.32489074e-003 4.66645788e-003 3.17873433e-003
      1.32802492e-002 1.47890896e-002 8.14905297e-003 8.62509664e-003
      2.56468356e-003 9.50596016e-003 3.12250736e-003 6.52714027e-003
      4.08674870e-003 1.29399654e-002 6.87098410e-003 6.88014086e-003
      6.65875943e-003 5.29359514e-003 5.06046321e-003 3.77106294e-003
      3.70157068e-003 4.03917488e-003 6.32085279e-003 9.41249449e-003
      7.12754251e-003 6.87799882e-003 4.48371051e-003 3.48700653e-003
      2.85529974e-003 4.30706795e-003 4.33022529e-003 9.31860227e-003
      1.48117468e-002 7.22926809e-003 7.79266842e-003 2.78700702e-003
      7.13729486e-003 2.98097986e-003 5.56938862e-003 4.24047513e-003
      1.32271675e-002 1.69906355e-002 8.08292162e-003 9.64064989e-003
      5.03278989e-003 1.46422423e-002 3.89942061e-003 6.30475022e-003
      5.43785421e-003 1.58895794e-002 7.52451411e-003 5.98305184e-003
      5.26158232e-003 2.54092156e-003 2.26191920e-003 2.87905475e-003
      4.09746543e-003 3.91976954e-003 7.33785657e-003 9.57064517e-003
      7.75718689e-003 9.72915255e-003 4.16316558e-003 8.07860494e-003
      3.19232582e-003 5.59716579e-003 5.36374701e-003 9.51456279e-003
      1.56204356e-002 6.43106969e-003 6.08696463e-003 4.69775917e-003
      1.16162514e-002 2.44144048e-003 5.31869521e-003 4.27884003e-003
      1.39906602e-002 1.80600323e-002 7.32354680e-003 7.00044725e-003
      4.88650240e-003 1.20109143e-002 2.92514544e-003 6.45058183e-003
      6.08580559e-003 1.83770824e-002 8.27415846e-003 6.63604634e-003
      6.39765337e-003 4.03141091e-003 6.53249910e-003 2.34636106e-003
      4.59144637e-003 5.29722963e-003 7.10099330e-003 8.88470653e-003
      8.12609587e-003 8.25796649e-003 4.89596417e-003 7.31043378e-003
      3.89440381e-003 6.14488637e-003 7.30824657e-003 8.93909670e-003
      8.42489826e-004 7.75990367e-004 1.40193978e-003 1.77959085e-003
      1.09490321e-003 1.05494400e-003 1.75420218e-003 1.59218966e-003
      8.32015008e-004 8.20936868e-004 9.12011601e-004 2.37726467e-003
      5.57947159e-003 5.14420215e-003 1.08217320e-003 1.54154957e-003
      1.15938450e-003 6.38031284e-004 1.03279529e-003 7.71042076e-004
      1.57824089e-003 2.65541510e-003 2.01410311e-003 1.65941054e-003
      1.92951411e-003 1.63757300e-003 1.02958723e-003 9.61386308e-004
      1.08565239e-003 2.22934852e-003 5.42186759e-003 5.17407618e-003
      3.51093919e-003 1.56337116e-003 1.45613495e-003 8.23090493e-004
      1.05758733e-003 1.00545504e-003 1.08227006e-003 4.49243793e-003
      4.24902327e-003 1.08074048e-003 1.09919580e-003 8.03128816e-004
      6.56652264e-004 1.34974218e-003 1.29236968e-003 1.08668033e-003
      3.91624030e-003 4.26028855e-003 1.96165219e-003 1.06872211e-003
      1.05579861e-003 1.03494362e-003 1.14032638e-003 1.04615802e-003
      1.21534523e-003 4.57512401e-003 4.29267576e-003 2.68628052e-003
      1.85508071e-003 1.56948681e-003 1.19243073e-003 1.07801915e-003
      1.05704938e-003 1.36240479e-003 3.06394044e-003 4.30295989e-003
      2.49745604e-003 2.05201842e-003 1.69616309e-003 1.29984017e-003
      9.22495557e-004 8.78831372e-004 9.53922456e-004 3.89370066e-003
      4.59582871e-003 1.95959490e-003 1.49538275e-003 1.18925585e-003
      8.00082402e-004 1.01067405e-003 1.13675720e-003 1.24464161e-003
      4.90820128e-003 4.65065334e-003 1.36650179e-003 1.57219300e-003
      1.37131417e-003 9.05388559e-004 1.01212808e-003 8.94315424e-004
      9.34248092e-004 2.80203857e-003 4.54227021e-003 1.92884693e-003
      1.43118738e-003 1.18320272e-003 1.10100652e-003 1.19743717e-003
      9.21041181e-004 9.75658360e-004 3.16025713e-003 4.61068330e-003
      1.90303312e-003 1.56716409e-003 1.14028191e-003 8.40180030e-004
      9.41727078e-004 1.03790045e-003 1.46051007e-003 4.34968295e-003
      4.07641893e-003 9.63700179e-004 1.50684663e-003 1.23842654e-003
      7.50858511e-004 9.04191576e-004 1.41180644e-003 3.64694814e-003
      4.31074807e-003 3.85560282e-003 9.98186530e-004 1.15338457e-003
      1.11186516e-003 4.73648193e-004 1.12136453e-003 8.82494962e-004
      1.32493116e-003 3.86305340e-003 4.02856059e-003 1.73917704e-003
      1.55861781e-003 1.06602209e-003 6.06361020e-004 8.24807154e-004
      8.96935759e-004 1.80018775e-003 4.17487789e-003 3.98690999e-003
      1.60468370e-003 1.17072091e-003 1.05222943e-003 4.30330256e-004
      1.05578674e-003 4.07022750e-003 4.22426499e-003 3.82876815e-003
      1.46501337e-003 9.28338442e-004 1.26146537e-003 1.12067349e-003
      5.23338502e-004 2.52288580e-003 4.16039908e-003 4.23032092e-003
      2.11732090e-003 1.03217131e-003 6.78688404e-004 1.29403570e-003
      1.34356227e-003 1.58913014e-003 7.65741919e-004 1.34921877e-003
      2.35172641e-003 3.78286210e-003 3.55243287e-003 1.09318038e-003
      1.42513216e-003 1.18896528e-003 5.73594356e-004 1.15239818e-003
      2.67936662e-003 2.21040123e-003 3.78272659e-003 3.58506083e-003
      8.70790624e-004 1.61263649e-003 1.29414373e-003 8.84499925e-004
      3.47651495e-003 3.96878831e-003 3.98690207e-003 1.54649420e-003
      1.01134228e-003 8.22789327e-004 1.54331536e-003 3.01590329e-003
      3.39014316e-003 3.46549181e-003 3.47885350e-003 4.07044310e-003
      3.87632661e-003 1.88831100e-003 1.31174480e-003 1.75111927e-003
      2.59484700e-003 3.54745495e-003 1.92823785e-003 2.58994079e-003
      1.55513419e-003 1.21555012e-003 2.09704763e-003 9.34174808e-004
      1.76509609e-003 1.77133095e-003 2.26157694e-003 1.94510713e-003
      2.19429284e-003 1.97679526e-003 1.11127354e-003 1.26051682e-003
      1.17779779e-003 2.02494301e-003 1.86379044e-003 2.00757757e-003
      2.46017426e-003 3.98452953e-003 4.35731327e-003 4.23809374e-003
      4.24174406e-003 1.33451715e-003 1.86474551e-003 1.63116772e-003
      1.24122354e-003 1.08993705e-003 1.23094779e-003 2.38781492e-003
      1.47321599e-003 8.58785119e-003 1.07173400e-003 1.83271489e-003
      1.96498702e-003 1.78397924e-003 2.23164074e-003 3.24609736e-003
      4.05027904e-003 1.74427929e-003 2.32136063e-003 1.53426931e-003
      2.39736633e-003 1.76531670e-003 1.69610314e-003 6.78829569e-003
      2.73077143e-003 6.21902384e-003 1.00523350e-003 9.09436774e-003
      1.20010774e-003 4.36434383e-003 2.90816068e-003 7.49359187e-003
      3.68191465e-003 1.86443015e-003 3.58692091e-003 8.19852692e-004
      6.15784293e-003 9.61079553e-004 2.14801985e-003 2.30817683e-003
      4.15462302e-003 1.05839157e-002 1.23819942e-003 2.55641551e-003
      9.39321239e-004 2.05319375e-002 1.16663286e-003 3.91931226e-003
      6.77183457e-003 1.21700494e-002 8.25936999e-003 2.93864007e-003
      6.38660975e-003 6.75813179e-004 8.64298828e-003 9.20409570e-004
      5.13963867e-003 3.35598830e-003 8.81415233e-003 4.50280868e-003
      1.16793986e-003 2.30203196e-003 6.67025859e-004 2.05092635e-002
      1.06022158e-003 3.60931386e-003 2.07990408e-003 5.00319526e-003
      4.46634553e-003 1.21965737e-003 1.95397530e-003 1.26637588e-003
      1.59361456e-002 7.83650787e-004 3.50936921e-003 2.10440578e-003
      4.87103453e-003 5.17263543e-003 2.16310890e-003 4.06454876e-003
      3.27229919e-003 2.68950500e-002 5.13183698e-003 8.45370721e-003
      5.87631809e-003 6.71296008e-003 1.56039232e-003 1.06843282e-003
      1.60639267e-003 1.11539441e-003 2.00582650e-002 8.52259342e-004
      2.64541409e-003 1.72620313e-003 2.17545638e-003 2.48743943e-003
      1.50334521e-003 3.22204083e-003 2.50084233e-003 2.68262327e-002
      4.25020838e-003 4.76715015e-003 2.96964310e-003 3.64725431e-003
      4.54623392e-003 1.50034390e-003 2.96528055e-003 2.65375338e-003
      2.63231751e-002 3.78555199e-003 6.00915309e-003 3.24627897e-003
      4.51369304e-003 9.41826962e-003 4.92837001e-003 4.20056796e-003
      3.72702442e-003 9.83177032e-003 3.81381973e-003 3.90543859e-003
      2.59838998e-003 6.17423654e-003 2.37627700e-003 7.67416786e-004
      1.95549242e-003 1.67853327e-003 2.81955507e-002 4.06613154e-003
      4.36208257e-003 2.95843207e-003 3.83320265e-003 3.54932249e-003
      1.14643387e-003 1.36664032e-003 2.13633617e-003 7.74266571e-003
      5.53142000e-003 5.32775838e-003 3.73225496e-003 4.19766316e-003
      1.23868883e-002 5.80529450e-003 4.31592809e-003 1.95002032e-003
      6.39138091e-003 1.62920461e-003 2.17658631e-003 2.13805796e-003
      1.08518312e-002 8.51317029e-003 5.76061429e-003 4.39046137e-003
      3.42034269e-003 5.89234754e-003 2.15092720e-003 3.30550992e-003
      3.97007400e-003 8.54671467e-003 5.62788872e-003 8.62455985e-004
      1.10597734e-003 1.57266308e-003 5.08689042e-003 2.29442841e-003
      2.80933641e-003 3.06331343e-003 6.05939329e-003 8.89824145e-003
      1.76354230e-003 3.24345846e-003 2.56888522e-003 5.58871683e-003
      3.04755755e-003 3.86484363e-003 6.42504590e-003 9.08755604e-003
      5.75120887e-003 3.19187343e-003 3.16283037e-003 5.10080438e-003
      8.43094848e-003 2.49202875e-003 3.68282315e-003 3.30969878e-003
      4.97227162e-003 3.12053715e-003 4.67083696e-003 4.79854364e-003
      5.07915998e-003 7.29614263e-003 2.94833351e-003 3.26934620e-003
      2.87885661e-003 2.70954729e-003 7.18524028e-003 2.18731654e-003
      3.06333927e-003 3.75971221e-003 5.13910595e-003 4.83862730e-003
      6.59400597e-003 7.37850135e-003 7.07210973e-003 3.77635425e-003
      3.79706896e-003 4.25327802e-003 5.07015176e-003 1.07051944e-002
      5.44796884e-003 6.29666960e-003 6.55749626e-003 4.84865392e-003
      4.33585327e-003 5.27974078e-003 6.37397869e-003 4.69477847e-003
      6.88058324e-003 3.96661414e-003 3.16877826e-003 4.51314636e-003
      4.48342087e-003 6.35499554e-003 4.83543053e-003 6.49552466e-003
      4.83033340e-003 5.98019222e-003 3.68228718e-003 4.43379115e-003
      5.67982439e-003 7.33939791e-003 4.27346118e-003 4.55756253e-003
      6.20263442e-003 5.68316132e-003 7.85203744e-003 5.96976001e-003
      3.99778737e-003 5.36091672e-003 5.12562366e-003 4.53372952e-003
      4.69662203e-003 6.57851482e-003 6.24776771e-003 9.00790468e-003
      4.49774787e-003 3.98200192e-003 5.66918915e-003 6.95427880e-003
      6.72327029e-003 5.00301318e-003 3.83297028e-003 3.03697982e-003
      4.90282895e-003 4.24611103e-003 5.49302436e-003 6.25447510e-003
      7.24836113e-003 8.45527090e-003 6.74128393e-003 6.90401206e-003
      4.37142327e-003 9.00126435e-003 5.60581638e-003 6.87528076e-003
      6.89912681e-003 8.28169286e-003 4.47809650e-003 4.53472650e-003
      4.48721414e-003 4.50139819e-003 4.97703021e-003 2.81499326e-003
      4.53312043e-003 5.81815187e-003 6.30853558e-003 9.13287513e-003
      6.33110059e-003 5.48127806e-003 3.76231736e-003 9.07157362e-003
      5.52687468e-003 9.00911540e-003 7.85781350e-003 8.53429269e-003
      7.62339449e-003 4.65642801e-003 5.30690234e-003 4.58160462e-003
      6.48397766e-003 3.66411777e-003 5.88771701e-003 7.55903637e-003
      7.20504671e-003 7.98444171e-003 6.89974567e-003 5.98015543e-003
      4.75449115e-003 7.18061160e-003 3.68554168e-003 7.00349081e-003
      8.52846820e-003 8.32636561e-003 7.48239318e-003 5.27710747e-003
      4.83358372e-003 3.84790823e-003 6.73882291e-003 4.30878252e-003
      7.12114619e-003 6.68077823e-003 7.16814585e-003 7.46590178e-003
      6.86036795e-003 6.32143114e-003 4.78879921e-003 7.36393314e-003
      3.83648905e-003 7.49321654e-003 6.56671776e-003 7.38067552e-003
      1.17586821e-003 1.05052162e-003 1.52752665e-003 1.79733266e-003
      2.01184186e-003 1.96021236e-003 1.62944000e-003 1.17488648e-003
      1.13288360e-003 1.01810542e-003 1.01365987e-003 1.29091041e-003
      4.83083446e-003 4.69315844e-003 4.82980721e-003 2.01991340e-003
      1.76185404e-003 8.20989604e-004 1.16223190e-003 1.08305411e-003
      1.30170921e-003 2.48737982e-003 3.18453787e-003 1.47517899e-003
      9.14297474e-004 4.21822682e-004 7.16614712e-004 8.68185656e-004
      8.90805153e-004 1.67295546e-003 4.75380477e-003 4.86747036e-003
      3.42413387e-003 1.77730562e-003 9.98763368e-004 5.05778007e-004
      8.63880850e-004 7.69213890e-004 8.72923934e-004 3.00552649e-003
      4.38173488e-003 2.97319144e-003 1.66529976e-003 1.24513044e-003
      7.19679985e-004 9.29862785e-004 7.36461428e-004 1.36308197e-003
      4.45016846e-003 4.42229491e-003 1.69246038e-003 1.68079603e-003
      1.22420338e-003 9.69324436e-004 7.40344170e-004 6.74572482e-004
      1.07498141e-003 4.25824989e-003 4.57826909e-003 1.88622449e-003
      1.56027079e-003 9.00949235e-004 4.40879754e-004 1.03800907e-003
      6.66007865e-004 1.01125042e-003 4.38929163e-003 4.65126103e-003
      1.27975503e-003 1.65980193e-003 1.30846759e-003 9.57627955e-004
      8.38667562e-004 6.59373181e-004 8.97407532e-004 3.86772980e-003
      4.23850724e-003 1.07119977e-003 1.52226503e-003 1.16803497e-003
      7.50659208e-004 9.36101889e-004 7.63316406e-004 9.03410779e-004
      3.29671125e-003 4.12713084e-003 9.32912459e-004 1.06429937e-003
      6.88035507e-004 6.55560871e-004 1.30421075e-003 8.31873447e-004
      9.85984923e-004 4.41420637e-003 4.64561908e-003 1.16883556e-003
      1.87855493e-003 1.38278166e-003 7.63134565e-004 1.18751160e-003
      1.32514886e-003 1.14107411e-003 4.70572291e-003 4.72665625e-003
      7.66200421e-004 1.64995482e-003 1.29675167e-003 5.36582316e-004
      7.46451027e-004 7.59983319e-004 1.27110246e-003 3.35257058e-003
      4.33128327e-003 1.13808073e-003 1.39787747e-003 6.87483524e-004
      5.64596150e-004 8.77519837e-004 8.95081903e-004 1.25614856e-003
      4.09812201e-003 4.49764403e-003 1.46976090e-003 1.25576439e-003
      1.06478995e-003 6.84168597e-004 1.00177084e-003 1.21650740e-003
      1.39422796e-003 4.64120368e-003 5.26942825e-003 1.18480669e-003
      1.41071016e-003 1.08416914e-003 7.95195228e-004 1.21353834e-003
      1.35533733e-003 1.30003865e-003 2.30703503e-003 5.03648585e-003
      1.96373486e-003 1.50348211e-003 1.30810577e-003 1.25704950e-003
      6.90738787e-004 5.38238208e-004 6.51502283e-004 4.68916865e-003
      4.66776686e-003 9.40600759e-004 1.24591251e-003 1.04410527e-003
      6.00399100e-004 9.10529227e-004 6.31740841e-004 7.47086015e-004
      2.71825818e-003 4.69308160e-003 8.06558412e-004 1.65933662e-003
      1.17557158e-003 6.68127555e-004 1.09247549e-003 7.91583152e-004
      8.31702142e-004 2.13293196e-003 5.20763360e-003 1.12609740e-003
      1.36691064e-003 1.28839409e-003 9.65336920e-004 1.26373291e-003
      1.05854357e-003 7.26529397e-004 2.02358817e-003 5.11181215e-003
      8.64121015e-004 1.55660836e-003 1.30628166e-003 9.70351626e-004
      1.43052370e-003 1.62669725e-003 1.81840360e-003 3.77851841e-003
      3.93042807e-003 1.53781939e-003 2.31195358e-003 1.76405895e-003
      1.22713146e-003 2.26962916e-003 2.69454718e-003 2.64949026e-003
      9.17705998e-004 3.21808760e-003 1.66480255e-003 2.69934069e-003
      2.27002567e-003 1.87560241e-003 1.57832599e-003 1.77822949e-003
      2.15209764e-003 4.00449196e-003 4.33990965e-003 9.71619505e-004
      1.92374864e-003 1.60451757e-003 1.25647080e-003 2.18281359e-003
      2.03163968e-003 2.98189931e-003 1.26570265e-003 4.64415969e-003
      1.36719982e-003 2.46449932e-003 2.20162212e-003 2.03927606e-003
      3.41664627e-003 3.04995338e-003 3.44551308e-003 1.19652308e-003
      3.31421872e-003 1.73551706e-003 2.78583495e-003 2.23646592e-003
      3.16960295e-003 5.59183490e-003 2.98288767e-003 5.76779060e-003
      9.04419576e-004 7.08905095e-003 9.96815390e-004 4.69104853e-003
      2.66934955e-003 5.90571435e-003 2.84612831e-003 2.75740749e-003
      3.79532855e-003 1.27876655e-003 4.29305946e-003 1.52328028e-003
      3.14455968e-003 2.43541622e-003 2.82495399e-003 4.90889419e-003
      2.53745657e-003 5.52743534e-003 1.30963337e-003 8.03162251e-003
      1.39327720e-003 4.94011678e-003 2.53190030e-003 4.89944732e-003
      6.01581344e-003 2.66812695e-003 5.53524774e-003 9.02868458e-004
      5.24559291e-003 7.79758557e-004 3.56163201e-003 2.15436635e-003
      6.24241494e-003 5.13205118e-003 1.24942907e-003 1.99525291e-003
      5.90916490e-004 1.88044924e-002 6.84197817e-004 4.28745151e-003
      2.08816328e-003 5.09961555e-003 4.64248611e-003 1.81943923e-003
      3.77492397e-003 1.10101723e-003 6.37689885e-003 9.03202861e-004
      3.31422780e-003 1.99718634e-003 4.95167123e-003 7.79934041e-003
      4.68135858e-003 7.27933273e-003 1.97005551e-003 2.41839495e-002
      8.07284261e-004 4.11462644e-003 2.22072774e-003 7.76104629e-003
      1.65736547e-003 8.06546828e-004 1.02719537e-003 5.39389963e-004
      1.59326196e-002 6.83216786e-004 2.94237444e-003 1.60165480e-003
      1.76573661e-003 1.28843309e-003 1.04860286e-003 4.54940600e-003
      3.67700891e-003 2.61596665e-002 6.40157377e-003 7.38527346e-003
      6.49658730e-003 3.74310184e-003 2.60091317e-003 1.21529051e-003
      1.95766310e-003 9.02784348e-004 1.66153461e-002 1.17570488e-003
      4.52401070e-003 2.33962759e-003 2.73530465e-003 3.06833396e-003
      1.99985481e-003 6.48408290e-003 6.94354111e-003 2.24853121e-002
      8.05265829e-003 7.92894606e-003 3.48734530e-003 3.16293910e-003
      2.66706268e-003 1.21682172e-003 2.73159822e-003 2.58738105e-003
      2.35862415e-002 3.35369655e-003 5.38645172e-003 3.80224944e-003
      5.40149026e-003 6.24648156e-003 1.67007931e-003 2.76444899e-003
      2.94135045e-003 4.72028507e-003 4.55685006e-003 6.11633016e-003
      6.05509244e-003 9.55793262e-003 2.56794435e-003 2.93268380e-003
      4.28429525e-003 3.86117096e-003 2.61239167e-002 4.73315688e-003
      8.18133447e-003 4.53540171e-003 2.58907257e-003 2.36690836e-003
      3.64729646e-003 4.59652347e-003 4.46230406e-003 6.47909567e-003
      5.17364638e-003 4.74925432e-003 5.46815293e-003 5.35326218e-003
      9.21001844e-003 1.25942263e-003 1.30601099e-003 1.64591591e-003
      3.71678942e-003 2.05664453e-003 2.82905437e-003 4.02619829e-003
      9.91664268e-003 9.78375319e-003 1.50973455e-003 2.27102498e-003
      1.67006289e-003 2.86338944e-003 2.35719397e-003 3.31857032e-003
      5.85427368e-003 1.03240050e-002 4.64694435e-003 2.18903716e-003
      2.69183307e-003 2.34857574e-003 4.23901342e-003 2.93690455e-003
      2.54622172e-003 3.92616214e-003 5.28950989e-003 5.31966984e-003
      2.58754753e-003 2.35306052e-003 2.91786157e-003 2.42883596e-003
      1.16072258e-003 1.66314491e-003 3.04658432e-003 5.75033063e-003
      6.04925724e-003 2.03986280e-003 2.88398075e-003 2.89756036e-003
      4.60237730e-003 3.47574102e-003 4.41010436e-003 6.66362839e-003
      7.24442350e-003 5.92349097e-003 4.00828011e-003 3.68508440e-003
      4.74702008e-003 1.00548994e-002 4.85771010e-003 5.23165241e-003
      6.54398650e-003 5.44929691e-003 5.05074300e-003 3.27796815e-003
      2.47714412e-003 3.09007848e-003 2.44777463e-003 1.48505252e-003
      2.11058697e-003 3.95309040e-003 5.34957647e-003 7.05179013e-003
      4.97300643e-003 4.04182170e-003 4.02685860e-003 9.71429329e-003
      4.26866626e-003 4.41689789e-003 6.68718386e-003 5.97188296e-003
      4.70279809e-003 4.41459473e-003 4.72186739e-003 4.93252138e-003
      7.42331753e-003 5.98501647e-003 3.24304285e-003 6.36015227e-003
      5.64901531e-003 3.40508670e-003 3.76903010e-003 5.04892133e-003
      4.90554795e-003 7.20500620e-003 5.37618902e-003 4.05247370e-003
      4.73911501e-003 4.60996060e-003 5.53919468e-003 4.23332769e-003
      5.08951722e-003 4.92120860e-003 8.58829916e-003 5.19994413e-003
      5.37780346e-003 6.52666343e-003 4.38717846e-003 4.70721023e-003
      3.67600797e-003 4.89229755e-003 4.85473732e-003 9.51638632e-003
      6.55229297e-003 6.15273230e-003 5.88660548e-003 4.03886847e-003
      2.68480415e-003 2.78030010e-003 2.49216217e-003 3.02195945e-003
      3.11468053e-003 3.02546658e-003 3.60147981e-003 4.19422053e-003
      4.56534047e-003 7.69274961e-003 4.86804498e-003 3.83257028e-003
      2.60739541e-003 8.78821872e-003 4.41898266e-003 5.77359321e-003
      4.66425437e-003 8.20799265e-003 6.26304885e-003 4.92724311e-003
      4.41279262e-003 5.29698329e-003 7.08411355e-003 5.76470001e-003
      5.16255293e-003 6.85492018e-003 5.88115584e-003 8.58355407e-003
      7.22807925e-003 5.87575464e-003 6.97879167e-003 1.14526022e-002
      6.59108255e-003 8.38738307e-003 8.00749287e-003 8.81393999e-003
      5.26513672e-003 5.02359215e-003 2.83426885e-003 2.21697032e-003
      4.40102490e-003 3.25312489e-003 3.83547507e-003 3.77032347e-003
      5.49687771e-003 7.48787820e-003 7.33661558e-003 7.63921626e-003
      7.28358887e-003 6.22986862e-003 3.17533035e-003 4.20009065e-003
      5.06002363e-003 6.10605627e-003 7.52252340e-003 6.54992787e-003
      4.78288904e-003 5.20175742e-003 8.94600991e-003 3.79759748e-003
      4.33280505e-003 5.56747289e-003 7.74844131e-003 8.22911970e-003
      7.54618831e-003 8.96211993e-003 1.05705019e-002 9.87108424e-003
      4.05526021e-003 4.94562089e-003 7.45483208e-003 7.92961568e-003</_>
    <_>
      -4.07436937e-002 7.83873945e-002 3.56858931e-002 -2.19123475e-002
      -7.95953814e-003 7.14397663e-003 1.50532238e-002 1.35967080e-002
      -7.31443688e-002 -8.61832500e-002 6.37864470e-002 2.09441688e-002
      -3.93755035e-003 2.08906606e-002 -5.62300626e-003 1.52007653e-003
      1.68028641e-002 -8.35813954e-002 8.64933804e-003 7.84717798e-002
      3.26024331e-002 -9.61222593e-003 -5.27535789e-002 1.80823803e-002
      4.29580994e-002 2.24271677e-002 -1.87265296e-002 -1.94520392e-002
      6.00553676e-002 1.63838584e-002 -2.34979279e-002 -1.44227361e-002
      -1.78481936e-002 1.48207638e-002 3.08832601e-002 -1.72604136e-002
      -2.44086459e-002 5.72630689e-002 -7.41115946e-004 5.53340651e-003
      7.39243405e-005 -1.95054542e-002 -3.17978673e-002 1.00579523e-002
      -6.20181970e-002 -3.37280482e-002 2.78097894e-002 -3.31184603e-002
      -5.46535552e-002 -9.87691237e-005 -2.16708481e-002
      -3.66591401e-002 -2.13945042e-002 -4.07827236e-002
      -7.78972451e-003 5.54177985e-002 1.09382113e-002 -2.16568373e-002
      -3.76738906e-002 -1.13966372e-002 -8.10411666e-003 2.50646565e-002
      -9.40944534e-003 -7.04355864e-003 3.42516899e-002 7.57263508e-003
      -2.99604572e-002 -3.16848718e-002 -3.43010239e-002
      -1.43287666e-002 2.44916286e-002 -1.43129854e-002 -3.30704823e-002
      3.17047834e-002 7.59684388e-003 -8.94493144e-003 4.96821962e-002
      -9.70526692e-003 -3.25659402e-002 -2.15774123e-002
      -3.86990719e-002 -5.29248603e-002 -4.23327880e-003 2.57456042e-002
      -4.62942990e-003 3.27791907e-002 -2.58797817e-002 -3.27169187e-002
      -4.97158170e-002 -4.69640233e-002 1.20834922e-002 4.19282243e-002
      2.62115113e-002 1.25563536e-002 1.87040959e-002 -1.87432803e-002
      -2.24782545e-002 9.10929590e-003 6.01504045e-003 -1.15124369e-002
      1.86958555e-002 2.27890704e-002 7.95267057e-003 2.28796434e-002
      -2.47084722e-002 -1.14890244e-002 -3.43929674e-003 1.36824492e-002
      -1.28882630e-002 -1.89186241e-002 2.59645302e-002 -4.20025131e-003
      8.06677062e-003 -1.20798470e-002 -1.13239959e-002 -2.88488111e-003
      -3.08349938e-003 3.12287975e-002 2.81439337e-004 2.53351890e-002
      9.69582982e-003 5.41364998e-002 -4.84529929e-003 -2.80651413e-002
      -9.15328227e-003 2.71257106e-002 2.57890075e-002 6.46636216e-003
      1.04236417e-002 9.09407251e-003 -4.07313034e-002 -1.88606754e-002
      -4.14684415e-003 2.43755709e-002 2.79799849e-002 4.00365442e-002
      4.95856069e-002 2.75242645e-002 8.02949164e-003 -1.93992220e-002
      -1.58992279e-002 -3.07543371e-002 2.30231229e-002 3.04966774e-002
      2.55041905e-002 -1.69394910e-002 1.75249148e-002 -2.06372421e-002
      2.12341361e-002 1.23742758e-003 -3.51298302e-002 -3.43578979e-002
      2.93960534e-002 2.86704097e-002 2.85557061e-002 6.81164935e-002
      3.65864416e-003 9.93855484e-003 -2.49482952e-002 -1.51662389e-002
      -2.09472012e-002 2.26546284e-002 1.91499311e-002 1.08000534e-002
      2.21076142e-002 -8.58886540e-003 -4.83298302e-002 -2.35012788e-002
      -3.65718566e-002 -1.94210950e-002 2.26385072e-002 3.53345461e-002
      2.81768069e-002 5.97318150e-002 2.41326615e-002 -4.53746691e-002
      -2.57052947e-002 -2.28067320e-002 -2.89123449e-002 3.52093577e-002
      1.97555311e-002 4.26054038e-002 4.91997227e-002 -1.49634099e-002
      -1.77619494e-002 -3.21677774e-002 -9.94666014e-003
      -2.09531486e-002 2.46364679e-002 2.65503060e-002 3.87679189e-002
      2.55515687e-002 -1.85111053e-002 -1.15860580e-002 2.74510216e-003
      1.81277823e-002 9.05677211e-003 2.24175490e-002 1.20550757e-002
      -7.77937099e-003 5.35187311e-002 9.84776020e-003 -4.38620932e-002
      -3.29411626e-002 -1.31309386e-002 -2.06368584e-002 4.33181375e-002
      1.02751441e-002 1.52129596e-002 3.85677740e-002 1.24704721e-003
      -3.78684103e-002 -5.46122016e-003 1.87228844e-002 1.92303136e-002
      2.05935128e-002 1.04168812e-002 1.73173584e-002 -2.13020928e-002
      -5.73522747e-002 7.91206770e-003 7.71440612e-003 2.48517543e-002
      -1.63749959e-002 -3.66471037e-002 4.39728014e-002 1.72797050e-002
      1.91154238e-002 -2.83928998e-002 4.84283827e-002 2.57281549e-002
      7.67934248e-002 -7.04747951e-003 1.43553810e-002 -1.25963390e-002
      1.27970222e-002 -3.19452118e-003 -3.15039791e-002 -5.29911667e-002
      9.63023957e-003 2.11857874e-002 -3.06303874e-002 -1.34150553e-002
      -1.85794756e-002 -1.72040099e-003 2.79537868e-002 -1.24256045e-003
      -2.50850208e-002 1.92688555e-002 6.98909163e-002 -4.71960148e-003
      -7.85745867e-003 2.46096179e-002 -1.76222138e-002 1.77716073e-002
      -1.47928158e-002 4.82562482e-002 7.23190932e-003 5.17652482e-002
      -1.65444054e-002 -5.03466115e-004 2.05184799e-002 -1.28682945e-002
      2.45134421e-002 -1.55834230e-002 2.93428898e-002 -7.09414668e-003
      2.50271000e-002 -8.01621645e-004 -6.23397250e-003 1.31043198e-003
      -2.33665053e-002 6.63076900e-003 -4.96776495e-003 -3.15375067e-002
      -6.30919915e-003 3.57878208e-002 -3.05540636e-002 -2.69001201e-002
      -3.75990779e-003 -2.02173926e-003 3.01682148e-002 -1.06891403e-002
      -2.44145095e-002 3.46123474e-004 2.81315073e-002 -6.18783385e-003
      -3.60075734e-003 2.09626555e-002 9.71254520e-003 9.05625056e-003
      -3.94569561e-002 3.38249723e-003 -2.26326641e-002 3.46004637e-003
      2.05278723e-003 4.11495857e-004 -1.13760849e-004 -1.11896964e-002
      1.12365503e-002 -2.44297925e-002 4.60092947e-002 -9.82972328e-003
      3.22690718e-002 1.99328288e-002 1.43129621e-002 3.08870804e-003
      1.02659184e-002 3.40113118e-002 -1.19707026e-002 -3.42991576e-002
      -1.90340094e-002 2.73776590e-003 -2.07290724e-002 -1.83954537e-002
      2.17296723e-002 -1.29297413e-002 1.32680545e-002 4.51189373e-003
      -2.59325225e-002 -1.94259174e-002 6.68247091e-003 4.25049383e-003
      -3.89355002e-003 -1.19233262e-002 -2.20989231e-002 1.18365819e-002
      -2.15508807e-002 5.46371229e-002 8.71662982e-003 4.82237898e-002
      1.28372153e-002 -2.09079701e-002 1.84358489e-002 -4.55243047e-003
      5.28086312e-002 7.33861560e-003 1.89198833e-002 -9.50551592e-003
      3.56770642e-002 8.70100968e-003 1.89115368e-002 -1.35269603e-002
      -1.73163339e-002 8.01944453e-003 -1.19150737e-002 -1.78899784e-002
      -1.36370864e-002 8.55973642e-003 -3.84355895e-002 -2.98841838e-002
      -7.42230518e-003 -3.05406023e-002 2.98457388e-002 -1.13848541e-002
      -8.25601909e-003 -1.71585716e-002 1.46625936e-002 -1.46442791e-002
      6.10148488e-003 5.03469631e-002 -8.35380424e-003 2.28821784e-002
      -3.37102041e-002 -1.14563517e-002 -2.35981233e-002 2.91355513e-002
      1.85578838e-002 4.76010330e-002 3.82645242e-002 1.69801549e-003
      2.20876168e-002 -4.18085679e-002 5.24637848e-002 2.11225115e-002
      2.28229221e-002 2.84522865e-002 4.89725657e-002 1.72847174e-002
      -1.51411369e-002 -5.72375953e-003 -2.21758373e-002
      -4.29150201e-002 -2.64394693e-002 1.43045168e-002 -1.72388256e-002
      4.50125784e-002 -6.72289962e-003 7.34672183e-003 -5.24379825e-003
      -4.91333343e-002 -3.25652324e-002 8.15738179e-003 2.27731727e-002
      -2.74305511e-003 4.03188020e-002 3.79414558e-002 4.12304560e-003
      -2.78423104e-004 -4.96787690e-002 6.23540878e-002 1.23171834e-002
      2.07327697e-002 -1.87387187e-002 -5.66567807e-003 4.62856255e-002
      1.31727417e-003 1.02113571e-003 -2.56797038e-002 3.60524766e-002
      -3.80148403e-002 3.40190977e-002 -2.08749599e-003 3.58607061e-002
      -1.39064640e-002 -1.84620619e-002 -5.73697686e-003
      -3.57535556e-002 -1.36797233e-002 -6.29091868e-003 7.37451855e-003
      -4.57245018e-003 6.55804388e-003 1.76092628e-002 -5.76311490e-003
      -3.97149622e-002 -3.66883762e-002 -9.81611200e-003
      -2.15520430e-002 1.53286932e-002 -1.91002525e-003 2.18904987e-002
      3.56421322e-002 -2.97393743e-002 -4.66911569e-002 -8.34375247e-002
      -1.46788647e-002 -5.03322408e-002 4.12016874e-003 -7.99045246e-003
      3.70199420e-002 7.68574998e-002 2.55274884e-002 4.85878810e-003
      -1.86596848e-002 2.23053377e-002 3.02278660e-002 -1.12884631e-002
      -1.77850369e-002 6.46890923e-002 -8.30464158e-003 -2.59789545e-002
      -4.66004014e-002 -8.09567869e-002 -4.42491211e-002
      -6.43066242e-002 -3.50480154e-002 -3.13478671e-002 1.40078703e-003
      2.07590293e-002 1.08077843e-002 -7.89256021e-003 -2.71315500e-002
      -2.70000435e-002 -1.09327845e-002 -1.50034502e-002 8.58576503e-004
      1.73829459e-002 1.83621906e-002 -1.07631264e-002 -2.98669320e-002
      -8.12320784e-002 -2.18402594e-003 -2.81522181e-002
      -1.59096569e-002 -1.71954483e-002 1.40107265e-002 1.19525837e-002
      1.67277940e-002 -2.56172325e-002 -3.40345502e-002 2.07110937e-003
      -3.96520160e-002 3.20822187e-002 6.20345734e-002 1.34660546e-002
      -1.87764019e-002 -1.44071197e-002 -3.37193944e-002
      -4.89818864e-002 -3.24023999e-002 -4.64563072e-002
      -1.98510811e-002 -1.33584283e-004 -1.54126473e-002
      -7.20179733e-003 4.16663848e-002 -2.55392864e-003 -6.83777267e-004
      1.08310655e-002 -2.86193960e-003 4.75065559e-002 5.56628369e-002
      -1.54327907e-004 -4.35765535e-002 1.14518702e-002 4.48546978e-003
      -3.09962388e-002 7.63433054e-002 -2.68122125e-002 1.62870474e-002
      5.53728640e-002 -1.70703977e-002 -1.99666843e-002 -6.34677382e-003
      -2.28254311e-002 -7.12923110e-002 5.43987080e-002 1.04971742e-002
      2.05582697e-002 5.03874272e-002 1.15455892e-002 -3.87204476e-002
      5.68743311e-002 1.78338382e-002 -2.35175551e-003 6.11086376e-002
      -2.03672294e-002 4.64260438e-003 3.67649421e-002 -1.92441139e-002
      6.08993880e-003 4.47595753e-002 1.32074282e-002 -1.72731541e-002
      6.40559476e-003 -1.80825423e-002 2.02498888e-003 5.78306913e-002
      2.82589048e-002 -3.04006580e-002 3.71000804e-002 2.31195036e-002
      -1.39384391e-002 -2.58557498e-002 1.89066958e-002 3.26798372e-002
      2.28180587e-002 -1.07588489e-002 -7.04516098e-002 6.04454940e-003
      -6.51724171e-003 -3.40480022e-002 -4.38394537e-003
      -1.35415653e-002 -2.11853702e-002 -2.11502821e-003
      -5.38774319e-002 1.06301229e-003 4.14033979e-002 1.96303762e-002
      -2.12172400e-002 -2.07389574e-002 7.67335575e-003 1.47196148e-002
      1.65684633e-002 1.51550360e-002 -6.89263493e-002 9.29613074e-004
      -4.35587168e-002 4.73530497e-003 2.81388033e-002 4.49928362e-003
      -8.92643759e-004 -1.33289909e-002 -3.48471999e-002
      -3.81840952e-002 1.85338501e-002 2.67448332e-002 -1.99763346e-002
      -1.52379060e-002 -2.12564152e-002 -3.93598573e-003 8.81238375e-003
      -3.56594026e-002 -3.08331177e-002 4.88902349e-003 3.40499356e-002
      -8.84146336e-003 -2.06684172e-002 -3.71358208e-002
      -3.41908745e-002 8.51771329e-003 -3.80719788e-002 -3.74809951e-002
      1.90575719e-002 -3.25341932e-002 -2.02988498e-002 2.23147869e-003
      -3.61031964e-002 -3.34071880e-003 3.60342711e-002 -4.60477686e-003
      -6.42439276e-002 -2.17700657e-002 -2.68209297e-002
      -4.02929671e-002 1.60916697e-003 -3.91085073e-002 -8.79488606e-003
      1.16513744e-002 -2.61978284e-002 2.67959107e-002 2.58995444e-002
      3.93100195e-002 8.82519130e-003 -3.09318095e-003 6.53822115e-003
      -1.40400808e-002 2.34903861e-002 1.67290363e-002 1.76431648e-002
      -1.40041802e-002 8.86755344e-003 -1.35206273e-002 5.47354762e-003
      -7.41851237e-003 -2.75996234e-002 -1.98053066e-002 3.41396183e-002
      -6.65569445e-003 -3.88162152e-004 7.34091923e-003 -5.53045096e-003
      -8.89202114e-003 -2.28098240e-002 -1.55848851e-002
      -2.98252944e-002 -2.68565789e-002 1.53002888e-002 -3.21176052e-002
      -4.86023873e-002 -6.32334203e-002 -4.65333797e-002
      -3.36790048e-002 -5.25366925e-002 -8.05252492e-002
      -1.01377573e-002 3.04415636e-002 -1.71854328e-002 8.11417215e-003
      2.03357711e-002 -1.45702413e-003 4.66961530e-004 -2.47242376e-002
      8.66104238e-005 3.26043554e-002 3.10529899e-002 -2.26185638e-002
      1.57815255e-002 4.22736444e-002 2.80576721e-002 2.02885289e-002
      4.81097167e-003 3.72398682e-002 5.08791208e-002 9.81218927e-003
      -7.17476308e-002 -1.02910735e-001 -4.71510924e-002
      -6.42119814e-003 1.43708643e-002 -5.09210564e-002 -6.38581738e-002
      3.34457792e-002 -3.10058855e-002 -1.17097631e-001 -7.13885948e-002
      3.98200657e-003 6.34720176e-002 5.37239537e-002 6.75933110e-003
      2.31371410e-002 5.10380380e-002 -4.23247851e-002 -6.85892254e-002
      2.02804413e-002 3.22068371e-002 -6.91623846e-003 5.39616076e-003
      -5.12071839e-003 1.73840031e-003 1.39931282e-002 -4.82423007e-002
      -4.34600636e-002 5.77144623e-002 6.85742050e-002 -9.94494185e-003
      -2.59390473e-003 8.84510204e-003 -1.60115827e-002 -4.14994266e-003
      -9.92449522e-002 -1.60007581e-001 -1.79338045e-002 4.71095927e-002
      5.38218431e-002 2.93077938e-002 1.78650133e-002 4.56101727e-003
      1.95756257e-002 -6.09504208e-002 -8.67314413e-002 6.53913170e-002
      6.71093538e-002 3.95430028e-002 4.05963287e-002 2.82374620e-002
      -1.42606162e-002 2.59241406e-002 -2.83049587e-002 -6.78378716e-002
      4.29936126e-002 2.55924258e-002 -1.90990011e-003 -1.63001679e-002
      -5.04011288e-003 -3.69738452e-002 -2.13030670e-002
      -1.50126601e-002 -2.83223707e-002 4.12210673e-002 -1.74916710e-003
      -1.01418523e-002 3.01400237e-002 2.17858069e-002 -2.98796147e-002
      -3.68893775e-003 -7.49222701e-003 -6.56657517e-002 2.43127719e-002
      1.76991634e-002 2.70302314e-002 -6.32272393e-004 -7.03401107e-004
      -3.46078724e-002 5.06156236e-002 5.38835116e-003 -3.29075344e-002
      3.10188308e-002 1.14836916e-002 2.21488643e-002 3.91062163e-002
      2.53845728e-003 -3.92493345e-002 3.71172428e-002 -3.78990849e-003
      -1.30999804e-004 3.35183814e-002 -6.57274621e-003 -1.44271767e-002
      3.30202579e-002 1.24616930e-002 -3.21945436e-002 -6.33740425e-003
      -1.74957793e-003 -1.66174043e-002 1.44265788e-002 2.70725507e-002
      8.06126185e-003 4.73226756e-002 1.82737429e-002 -1.38323735e-002
      -1.10930391e-003 -4.44567949e-002 -6.61346912e-002 2.15120967e-002
      -1.87577419e-002 -6.36331225e-003 8.41631182e-003 -1.17575396e-002
      -4.86733057e-002 -1.19477510e-002 -5.55559322e-002
      -6.05804361e-002 -2.05924027e-002 -6.42610597e-004 4.73443139e-003
      3.15496400e-002 3.10629886e-003 -3.82061191e-002 -1.96073540e-002
      -1.55457752e-002 -1.24062095e-002 1.34002510e-002 2.43572854e-002
      1.00414623e-002 2.42671631e-002 2.53803469e-002 -4.02898118e-002
      -2.86541134e-002 -5.24489256e-003 5.43956878e-003 4.29666266e-002
      2.63938848e-002 1.50650172e-002 2.65073534e-002 1.81634463e-002
      -3.39689292e-002 8.17034859e-003 -4.82922383e-002 -6.43631667e-002
      -1.19198104e-002 1.55211333e-002 2.12217290e-002 1.99452937e-002
      1.33804027e-002 -4.40690219e-002 -2.56705601e-002 -5.82014807e-002
      -6.57056123e-002 1.20424451e-002 1.14410212e-002 5.93217369e-003
      -3.07624862e-002 -3.57975694e-003 -5.70994392e-002
      -7.67639950e-002 2.60077268e-002 2.41010375e-002 6.69563040e-002
      3.76469716e-002 -1.01273330e-002 -9.47991386e-003 1.30266054e-002
      -2.03693211e-002 1.08707761e-002 3.91353145e-002 1.50423506e-002
      4.27319221e-002 2.67698262e-002 -1.56935863e-002 -8.28017853e-003
      2.90589407e-002 1.85678024e-002 2.31844187e-002 -1.61185227e-002
      -3.26202586e-002 1.76642537e-002 6.42898818e-003 -4.13529724e-002
      -6.77622631e-002 -3.28447372e-002 -3.47236693e-002
      -2.90019065e-002 -1.78138502e-002 7.77328666e-003 4.85140923e-003
      -1.02394670e-002 -3.91460881e-002 -5.30620851e-002 1.16457017e-002
      -5.93093922e-003 1.70007895e-003 2.18655840e-002 -6.13790005e-004
      3.11997980e-002 1.29719451e-002 4.12814930e-004 -2.96198973e-003
      2.66878624e-002 6.87585538e-003 3.38570438e-002 2.03848276e-002
      -6.28263224e-003 3.20714787e-002 1.26452614e-002 1.31574823e-002
      9.65531857e-004 1.94551609e-002 4.59891278e-003 3.43492627e-002
      -4.71788794e-002 -3.45396064e-002 1.56807918e-002 3.05215013e-003
      -2.26276740e-002 -2.99789403e-002 1.51649807e-002 2.06990237e-003
      1.00334072e-002 -2.99481656e-002 -5.10556884e-002 3.35783279e-003
      1.72189344e-002 -6.74323598e-003 3.81263122e-002 5.19299842e-002
      1.72768813e-002 -6.94670761e-003 3.95984501e-002 3.63238575e-003
      3.14729698e-002 5.37420437e-003 -2.48934980e-002 -1.26738083e-002
      2.79748347e-002 1.15599353e-002 5.98502420e-002 1.41031835e-002
      3.66351306e-002 3.76246236e-002 -3.34980823e-002 1.55052394e-002
      2.55853664e-002 4.22192179e-002 2.22472474e-002 3.46814916e-002
      -1.14001725e-002 -1.04916506e-002 6.61764527e-003 -3.37946303e-002
      -7.10851178e-002 -1.96903571e-003 4.61995713e-002 2.56222133e-002
      2.76350193e-002 -1.18085956e-002 -1.00312214e-002 2.16321852e-002
      -5.81338555e-002 -8.08639526e-002 -2.51682159e-002 4.26481403e-002
      4.18447331e-002 2.90803425e-002 -2.03316975e-002 -2.01591500e-003
      2.08668876e-002 -2.38867085e-002 2.24466063e-002 2.37365905e-002
      2.52916850e-002 -5.44723170e-003 -1.60230615e-003 8.17305781e-003
      -1.90272722e-002 -1.86526496e-002 -3.14015262e-002 3.40614989e-002
      4.35145386e-002 4.75823916e-002 1.44579699e-002 4.55678664e-002
      -4.53154929e-002 -3.78257632e-002 5.01892390e-003 -1.68159492e-002
      -1.31361149e-002 -2.70475112e-002 2.87282541e-002 -9.99394897e-003
      1.31230038e-002 -2.85662357e-002 -2.32906323e-002 -4.08006944e-002
      -3.53867784e-002 -1.54906726e-002 -1.02131153e-002 1.66311357e-002
      -1.77740138e-002 2.32357197e-002 1.10768741e-002 -1.59021597e-002
      -3.17064971e-002 -6.33574352e-002 2.60884664e-003 -3.19568105e-002
      -1.62751246e-002 -1.45145096e-002 3.13442275e-002 5.93429357e-002
      4.36151810e-002 2.19251886e-002 1.09860254e-002 2.00622305e-002
      -1.26676336e-002 -1.50233728e-003 2.99108829e-002 6.13859929e-002
      -1.45294359e-002 -6.47502020e-002 -7.28435889e-002
      -8.61240178e-002 -4.91601229e-002 -8.02461952e-002
      -4.31559011e-002 -5.17442003e-002 -1.86583772e-003 2.56701000e-002
      -2.23260988e-002 -2.01461222e-002 -3.96603011e-002
      -1.82372965e-002 -6.60177544e-002 -4.85823937e-002
      -4.20079604e-002 3.63084599e-002 -2.66151363e-003 7.13920966e-003
      -2.90941522e-002 -3.81250195e-002 -1.85281355e-002
      -7.91557282e-002 -6.22953698e-002 -8.41932558e-003
      -5.19824587e-003 2.55929262e-006 4.74856943e-002 2.57519912e-002
      2.32744440e-002 3.85374352e-002 6.38315734e-003 2.35114619e-002
      4.59024981e-002 4.07207190e-005 -2.87991706e-002 -7.77012715e-003
      -2.49388516e-002 -5.92270792e-002 -6.03778251e-002
      -1.33063614e-001 -1.12310916e-001 -4.24103774e-002
      -1.64757334e-002 3.91217507e-002 7.41968751e-002 3.38310562e-002
      7.76546821e-003 -2.40956135e-002 -6.27790019e-002 1.60051901e-002
      6.07230701e-002 1.55161060e-002 -4.43931706e-002 3.18881311e-002
      -8.47721845e-003 -2.40207091e-002 6.58534169e-002 -1.24373240e-002
      2.78478488e-003 1.98140983e-002 -3.40448506e-002 7.61531852e-003
      2.57758293e-002 -2.66155857e-003 -5.85217141e-002 -2.62904982e-003
      -3.13122161e-002 -8.55594408e-003 4.93094400e-002 1.34128779e-002
      -5.01320586e-002 2.95576975e-002 -1.04552098e-002 -1.74737386e-002
      4.06998955e-002 -3.81632224e-002 1.25721125e-002 3.14171128e-002
      -3.18153575e-002 -1.22026578e-002 -7.16383383e-003
      -7.97952525e-003 -6.02213517e-002 -4.00648313e-003
      -3.38309780e-002 -3.33147915e-003 5.63705862e-002 3.06910109e-002
      4.76178229e-002 5.11966906e-002 1.31921489e-002 -4.52907495e-002
      -3.59506868e-002 -9.16777470e-004 2.92108785e-002 4.78034317e-002
      2.00775377e-002 -5.01660556e-002 1.86074600e-002 -3.95685062e-002
      -4.43441793e-002 1.24044763e-002 3.40781827e-003 3.70144770e-002
      4.34763394e-002 -3.12317144e-002 -4.12036316e-005 4.32445444e-002
      1.65255293e-002 -2.52927225e-002 -5.10497205e-002 -1.59318130e-002
      5.52580841e-002 6.97582513e-002 -8.61874968e-003 -5.99988438e-002
      1.61758736e-002 -1.07198963e-002 -5.85729554e-002 5.43070491e-003
      -1.99594144e-002 2.15200614e-002 4.25615534e-002 -5.43600470e-002
      8.15286580e-003 4.48366739e-002 -1.76584348e-002 -1.45997070e-002
      3.23133841e-002 4.11542803e-002 5.42297885e-002 1.06957406e-001
      5.72869927e-002 -5.57776876e-002 -6.01275526e-002 -6.13054894e-002
      -5.05339764e-002 2.04056613e-002 8.77380371e-003 4.93254606e-003
      2.04661321e-002 -1.41439252e-002 1.43705653e-002 -2.23634262e-002
      -9.42130536e-002 -1.28389284e-001 -3.97740938e-002 9.33625968e-004
      4.29980084e-002 1.12249188e-001 4.81319688e-002 -9.97984111e-002
      -1.61922529e-001 -1.76371425e-001 -1.58704162e-001
      -4.21941727e-002 -2.90967897e-002 -7.85095058e-003
      -1.36011532e-002 -6.83938116e-002 -3.32395323e-002
      -2.52576568e-003 9.44985729e-003 3.31051871e-002 7.45879635e-002
      4.88950126e-002 1.56290065e-002 -2.38808766e-002 -2.80480664e-002
      1.97292939e-002 1.62066873e-002 -5.26522435e-002 -3.69797014e-002
      3.76032293e-002 5.81551269e-002 -1.15879485e-002 -8.06263909e-002
      2.18231399e-002 -1.10433437e-001 -8.91182721e-002 -4.21877950e-002
      -1.33696115e-002 5.48739769e-002 3.59053575e-002 -2.33179666e-002
      -9.87161100e-002 -1.13289163e-001 -4.12680507e-002
      -3.80827598e-002 -8.60616416e-002 -8.94752815e-002 2.94684898e-002
      3.62507440e-002 -8.95845219e-002 -1.35899499e-001 -6.75144196e-002
      2.05219388e-002 -1.40825644e-001 -2.20890149e-001 -1.22143283e-001
      1.45172374e-002 7.39134699e-002 -2.19628513e-002 -5.52999899e-002
      7.62947798e-002 1.16694169e-002 -1.51826024e-001 -1.42685235e-001
      -1.69888046e-003 1.16217993e-001 1.06172644e-001 5.71965650e-002
      5.47850579e-002 1.12334140e-001 6.09797463e-002 -1.33719102e-001
      -2.27379158e-001 -1.69095635e-001 5.19599533e-004 5.51582780e-003
      -1.06199227e-001 -7.29082897e-002 3.38892974e-002 1.05893523e-001
      -6.58777729e-002 -1.13507263e-001 -3.08662299e-002 9.25515443e-002
      8.34775791e-002 5.05547505e-003 5.92448935e-002 1.53232172e-001
      -1.19095221e-001 -2.15721354e-001 -9.70690027e-002
      -2.23112456e-003 4.23004292e-002 3.18170786e-002 -1.56569798e-002
      -3.95410918e-002 -9.73118190e-003 -5.88208809e-002
      -9.55629498e-002 3.58577296e-002 5.80843128e-002 6.65811971e-002
      4.99796122e-002 -4.52534063e-003 -5.39608970e-002 -2.11963020e-002
      -2.16430184e-002 -8.57580975e-002 -6.13470003e-002 4.10722569e-002
      7.46895671e-002 3.51988524e-002 -3.21642794e-002 -2.63274610e-002
      4.23837267e-002 -6.18833117e-003 -8.65943078e-003 6.03947751e-002
      1.18788160e-001 1.21801466e-001 1.02398172e-001 1.52272172e-002
      -3.82777117e-002 -1.49762500e-002 -5.13053723e-002
      -8.81558880e-002 3.99470748e-003 4.02575396e-002 6.40129447e-002
      2.92374045e-002 -1.61774177e-002 -6.91193715e-002 -4.38890196e-002
      -5.62309474e-002 -8.80771726e-002 3.15544312e-003 3.58216949e-002
      3.42667475e-002 8.49115849e-003 -1.98938213e-002 -8.31328481e-002
      -1.47973103e-002 -1.08341062e-002 -1.37923742e-002 6.78761452e-002
      8.14272761e-002 1.10921673e-001 9.04079825e-002 4.60100546e-002
      -3.03544700e-002 -2.57827938e-002 -1.14459067e-003 7.37576326e-003
      7.99152106e-002 7.52892345e-002 5.73993847e-002 3.85382138e-002
      2.48961095e-002 -3.34476568e-002 1.06766298e-002 -4.80506197e-002
      -7.98162818e-002 1.80594977e-002 8.15868843e-003 3.51360478e-002
      -1.74707137e-002 -2.12120898e-002 -7.63832107e-002
      -5.41986227e-002 -8.75374898e-002 -9.00664479e-002
      -6.50100363e-003 2.26351749e-002 2.09815707e-002 1.81413032e-002
      -2.14288887e-002 -6.21304512e-002 -3.45407650e-002 4.10777293e-002
      3.59058492e-002 7.06305206e-002 3.33012007e-002 3.56843807e-002
      -1.80554669e-002 3.71158519e-003 -2.30244789e-002 3.39387618e-002
      5.18657565e-002 2.49559712e-002 3.88806015e-002 4.75152656e-002
      4.73669870e-003 -1.61435008e-002 2.77851447e-002 -1.66717283e-002
      4.67718244e-002 -1.07123770e-001 -9.76115987e-002 -3.08502037e-002
      2.19511744e-002 2.11121757e-002 5.68315247e-003 6.47799438e-003
      -5.97871467e-002 -7.66625702e-002 -1.03719629e-001
      -5.70627227e-002 1.20217381e-002 1.92806777e-002 7.07662897e-003
      -3.51263583e-002 -9.58085805e-003 -9.10699144e-002
      -1.14551008e-001 4.51610237e-002 5.39867999e-003 1.52799441e-002
      4.15453650e-002 6.09415304e-003 -1.99813694e-002 4.23177071e-002
      2.69996142e-003 5.11742085e-002 4.14843969e-002 3.31543423e-002
      4.43291441e-002 4.85634468e-002 -4.08072816e-003 1.64196771e-002
      4.64675799e-002 -4.19879938e-003 3.54521982e-002 -7.96632692e-002
      -2.93310098e-002 4.53643911e-002 4.12684865e-002 -1.23386374e-002
      -3.18852216e-002 -1.51673995e-003 -7.30922073e-002
      -8.13210830e-002 -6.10603280e-002 -1.20676411e-002 3.99494432e-002
      2.69316286e-002 -1.19234649e-002 -2.41179019e-002 1.25331618e-002
      -4.03194614e-002 -5.16395196e-002 2.58729383e-002 2.92702075e-002
      8.43925774e-002 7.16102645e-002 3.13807093e-002 8.44697934e-003
      4.46482077e-002 -1.66937895e-002 2.45001866e-003 -4.17146645e-002
      1.54676260e-002 6.61533326e-002 4.66336571e-002 1.15791466e-002
      1.94845330e-002 7.81250075e-002 -1.69551950e-002 -2.52007749e-002
      -5.96352145e-002 -3.01870592e-002 3.52469981e-002 4.53706272e-002
      3.09874024e-002 1.75815392e-002 1.89591274e-002 -2.99590249e-002
      -4.48027104e-002 -5.11863977e-002 -6.93084523e-002 2.17799898e-002
      6.52149767e-002 4.62445058e-002 6.64116442e-002 7.22441450e-002
      7.00223783e-004 -4.16751876e-002 -7.71267861e-002 -1.97541527e-002
      5.20508401e-002 5.76814823e-002 4.08299342e-002 5.59090078e-002
      7.50887990e-002 -2.85410751e-002 -2.63822135e-002 -8.84785578e-002
      -6.27553463e-002 3.32783498e-002 8.58725980e-002 9.01247486e-002
      8.35179016e-002 8.49584118e-002 -3.63727622e-002 -6.36505410e-002
      -5.85313747e-003 -3.89918163e-002 3.49605083e-002 3.71541195e-002
      1.24050099e-002 2.29388159e-002 7.34841228e-002 9.34265275e-003
      6.15915470e-003 -2.14048922e-002 -2.94820573e-002 4.08785418e-002
      6.80445787e-003 -6.54631434e-003 -4.54775011e-003 5.32566197e-002
      2.22706087e-002 -4.02315753e-003 -4.86181676e-002 -6.42540082e-002
      4.44738790e-002 7.26940185e-002 6.77165538e-002 6.05818667e-002
      7.34152794e-002 -2.75606196e-002 -2.17431728e-002 -6.18634894e-002
      -7.03965351e-002 4.90746982e-002 5.39758727e-002 7.63223916e-002
      4.96542454e-002 7.46077523e-002 -7.25768087e-003 -4.86535877e-002
      -9.28415917e-003 -2.43682251e-003 4.35628444e-002 1.70036759e-002
      5.59829101e-002 1.94303486e-002 6.04499057e-002 1.14159547e-002
      8.14756006e-003 -3.85559648e-002 -2.17573997e-002 2.10607890e-003
      -1.28029967e-002 3.21394391e-002 3.34630385e-002 5.45238331e-002
      -4.81979130e-003 -4.21982119e-003 -6.64867610e-002
      -4.98599298e-002 5.59125133e-002 5.13025150e-002 1.13232575e-001
      6.86017051e-002 9.33837891e-002 -1.16699031e-002 -6.70549050e-002
      -1.03564367e-001 -8.68413448e-002 1.17418505e-002 2.39752587e-002
      7.96033069e-002 6.90875053e-002 6.22738190e-002 -4.20265272e-002
      -8.27961415e-002 -7.77826319e-003 -5.15780710e-002
      -5.61043248e-002 -5.94761446e-002 2.45624594e-003 -3.37780528e-002
      9.23257694e-003 -2.69614197e-002 -6.41749287e-003 6.89387843e-002
      2.52960436e-002 -9.86846536e-003 6.30048942e-003 1.53270988e-002
      -2.15893313e-002 3.05485749e-003 -7.49107869e-003 8.44802782e-002
      -9.35494304e-002 -1.21428989e-001 -7.97182545e-002
      -6.06912449e-002 1.71224978e-002 -1.07318806e-002 2.29768362e-003
      -5.53452447e-002 -6.42511398e-002 -3.23075354e-002
      -3.39451544e-002 -7.40471333e-002 -2.68807076e-002
      -5.42680696e-002 -5.95447533e-002 -1.44114541e-002
      -6.00428842e-002 -1.61996239e-003 2.13349834e-002 8.01469479e-003
      -3.30674313e-002 -7.49140382e-002 -9.92111787e-002
      -1.25958458e-001 -6.54424056e-002 -8.10444355e-003 2.00145021e-002
      8.05052519e-002 8.51634368e-002 4.53119576e-002 2.07461566e-002
      -4.07249704e-002 -3.42426412e-002 4.03831340e-002 7.79071897e-002
      6.80179298e-002 -3.94538529e-002 -6.16043434e-002 -9.28913280e-002
      -1.11154780e-001 -1.62451819e-001 -1.87576681e-001
      -9.28769857e-002 -5.78671172e-002 -2.50582807e-002 7.77345449e-002
      7.79142827e-002 5.79083040e-002 1.65207889e-002 -7.56630749e-002
      -5.55771887e-002 6.57625794e-002 8.22764710e-002 6.50001690e-002
      -2.02468708e-002 4.42584464e-003 -1.11044627e-002 -4.13371809e-002
      1.37821278e-002 -5.64827025e-002 6.50337245e-003 2.46595815e-002
      -3.22212018e-002 1.64674525e-003 -2.19082665e-002 -2.55611837e-002
      -6.73033446e-002 -4.85430937e-003 -7.95014277e-002
      -2.28273235e-002 3.18852589e-002 2.39661392e-002 6.41203951e-003
      3.74816060e-002 3.54081057e-002 -2.73800921e-003 1.21342568e-002
      -4.36503515e-002 6.07648538e-003 3.71219590e-002 -9.86815151e-003
      4.02751332e-003 1.62576362e-002 2.30616890e-003 -5.34088165e-002
      2.38553854e-003 -7.34371990e-002 -1.21796206e-002 4.47390303e-002
      3.30349915e-002 -3.49279009e-002 5.22719100e-002 3.40147503e-002
      3.98024777e-003 -2.76183710e-002 1.64134037e-002 5.73037602e-002
      6.80202991e-002 -2.59743612e-002 -6.76981360e-002 5.33358976e-002
      1.99841354e-002 -7.19055831e-002 -4.43071239e-002 -5.90398610e-002
      1.01438165e-002 4.99756038e-002 -5.69419414e-002 -1.83473621e-002
      1.38316220e-002 3.19787599e-002 2.17341608e-003 -2.16801818e-002
      1.87580492e-002 5.95289357e-002 6.94355518e-002 5.59517555e-003
      -6.23943955e-002 3.84317636e-002 4.17725146e-002 -5.32341972e-002
      -3.42865735e-002 -8.43776092e-002 -1.76007173e-003 5.55843338e-002
      -2.06842180e-002 5.62561117e-002 5.73012792e-002 -3.09168436e-002
      -1.12066090e-001 -4.96787429e-002 -5.22830300e-002 1.69147979e-002
      1.04233801e-001 7.47420415e-002 -3.24927680e-002 -9.96719599e-002
      -1.37169212e-001 -1.53234303e-001 -7.16045126e-002
      -1.07014380e-001 -5.85747957e-002 -1.08544491e-002
      -1.26746797e-003 8.30660313e-002 1.13048509e-001 6.50141016e-002
      -4.12159637e-002 -4.59010229e-002 -1.10133328e-001
      -5.96356392e-002 6.09651953e-002 8.02804828e-002 5.91091113e-003
      2.74166521e-002 -2.28950568e-002 -8.76442343e-002 -5.83901890e-002
      -1.42774150e-001 -1.62439302e-001 -9.80538130e-002
      -1.65211149e-002 -6.92305490e-002 -8.26094523e-002
      -4.35688607e-002 -1.47735402e-002 4.90883887e-002 -3.57546560e-005
      -2.23401692e-002 -6.78039193e-002 -4.95678373e-002 1.17600190e-004
      -3.39198783e-002 -9.42477584e-002 -6.20240234e-002 8.77564214e-003
      -1.29741998e-002 -9.40988660e-002 -9.18391272e-002
      -1.64322462e-003 -6.93864226e-002 -5.71998730e-002 2.15442409e-003
      1.33021222e-002 3.89103889e-002 6.80579711e-003 -5.00086322e-002
      -7.61663169e-002 -3.18376943e-002 -1.08885793e-002
      -1.01875618e-001 -1.06330641e-001 -2.67457794e-002
      -4.05462086e-003 -3.72726209e-002 -1.00479223e-001
      -3.63984890e-002 2.77142767e-002 8.82685781e-002 -6.95134252e-002
      -2.00975806e-001 -1.75655618e-001 -6.11883439e-002
      -9.66872349e-002 -1.57937020e-001 -6.60525560e-002 6.66125640e-002
      1.75347552e-001 2.72429399e-002 -3.83967198e-002 -2.86667813e-002
      5.02171405e-002 2.09217835e-002 -4.43581380e-002 3.59817706e-002
      1.68224946e-001 7.93641508e-002 -6.38202503e-002 -1.32782981e-001
      -1.16582684e-001 -8.77098143e-002 -1.59193188e-001
      -2.25423604e-001 -9.73329544e-002 9.55567658e-002 1.84161469e-001
      7.10933879e-002 6.38019852e-003 1.66111067e-002 2.72915717e-002
